{"learner":{"attributes":{"scikit_learn":"{\"_estimator_type\": \"classifier\"}"},"feature_names":["Term","InterestRate","BankLoans","SBARatio","UrbanRural_0","RetainedJob","DisbursementGross","RevLineCr","SBA_Appv"],"feature_types":["int","float","float","float","i","int","float","int","float"],"gradient_booster":{"model":{"gbtree_model_param":{"num_parallel_tree":"1","num_trees":"500"},"iteration_indptr":[0,1,2,3,4,5,6,7,8,9,10,11,12,13,14,15,16,17,18,19,20,21,22,23,24,25,26,27,28,29,30,31,32,33,34,35,36,37,38,39,40,41,42,43,44,45,46,47,48,49,50,51,52,53,54,55,56,57,58,59,60,61,62,63,64,65,66,67,68,69,70,71,72,73,74,75,76,77,78,79,80,81,82,83,84,85,86,87,88,89,90,91,92,93,94,95,96,97,98,99,100,101,102,103,104,105,106,107,108,109,110,111,112,113,114,115,116,117,118,119,120,121,122,123,124,125,126,127,128,129,130,131,132,133,134,135,136,137,138,139,140,141,142,143,144,145,146,147,148,149,150,151,152,153,154,155,156,157,158,159,160,161,162,163,164,165,166,167,168,169,170,171,172,173,174,175,176,177,178,179,180,181,182,183,184,185,186,187,188,189,190,191,192,193,194,195,196,197,198,199,200,201,202,203,204,205,206,207,208,209,210,211,212,213,214,215,216,217,218,219,220,221,222,223,224,225,226,227,228,229,230,231,232,233,234,235,236,237,238,239,240,241,242,243,244,245,246,247,248,249,250,251,252,253,254,255,256,257,258,259,260,261,262,263,264,265,266,267,268,269,270,271,272,273,274,275,276,277,278,279,280,281,282,283,284,285,286,287,288,289,290,291,292,293,294,295,296,297,298,299,300,301,302,303,304,305,306,307,308,309,310,311,312,313,314,315,316,317,318,319,320,321,322,323,324,325,326,327,328,329,330,331,332,333,334,335,336,337,338,339,340,341,342,343,344,345,346,347,348,349,350,351,352,353,354,355,356,357,358,359,360,361,362,363,364,365,366,367,368,369,370,371,372,373,374,375,376,377,378,379,380,381,382,383,384,385,386,387,388,389,390,391,392,393,394,395,396,397,398,399,400,401,402,403,404,405,406,407,408,409,410,411,412,413,414,415,416,417,418,419,420,421,422,423,424,425,426,427,428,429,430,431,432,433,434,435,436,437,438,439,440,441,442,443,444,445,446,447,448,449,450,451,452,453,454,455,456,457,458,459,460,461,462,463,464,465,466,467,468,469,470,471,472,473,474,475,476,477,478,479,480,481,482,483,484,485,486,487,488,489,490,491,492,493,494,495,496,497,498,499,500],"tree_info":[0,0,0,0,0,0,0,0,0,0,0,0,0,0,0,0,0,0,0,0,0,0,0,0,0,0,0,0,0,0,0,0,0,0,0,0,0,0,0,0,0,0,0,0,0,0,0,0,0,0,0,0,0,0,0,0,0,0,0,0,0,0,0,0,0,0,0,0,0,0,0,0,0,0,0,0,0,0,0,0,0,0,0,0,0,0,0,0,0,0,0,0,0,0,0,0,0,0,0,0,0,0,0,0,0,0,0,0,0,0,0,0,0,0,0,0,0,0,0,0,0,0,0,0,0,0,0,0,0,0,0,0,0,0,0,0,0,0,0,0,0,0,0,0,0,0,0,0,0,0,0,0,0,0,0,0,0,0,0,0,0,0,0,0,0,0,0,0,0,0,0,0,0,0,0,0,0,0,0,0,0,0,0,0,0,0,0,0,0,0,0,0,0,0,0,0,0,0,0,0,0,0,0,0,0,0,0,0,0,0,0,0,0,0,0,0,0,0,0,0,0,0,0,0,0,0,0,0,0,0,0,0,0,0,0,0,0,0,0,0,0,0,0,0,0,0,0,0,0,0,0,0,0,0,0,0,0,0,0,0,0,0,0,0,0,0,0,0,0,0,0,0,0,0,0,0,0,0,0,0,0,0,0,0,0,0,0,0,0,0,0,0,0,0,0,0,0,0,0,0,0,0,0,0,0,0,0,0,0,0,0,0,0,0,0,0,0,0,0,0,0,0,0,0,0,0,0,0,0,0,0,0,0,0,0,0,0,0,0,0,0,0,0,0,0,0,0,0,0,0,0,0,0,0,0,0,0,0,0,0,0,0,0,0,0,0,0,0,0,0,0,0,0,0,0,0,0,0,0,0,0,0,0,0,0,0,0,0,0,0,0,0,0,0,0,0,0,0,0,0,0,0,0,0,0,0,0,0,0,0,0,0,0,0,0,0,0,0,0,0,0,0,0,0,0,0,0,0,0,0,0,0,0,0,0,0,0,0,0,0,0,0,0,0,0,0,0,0,0,0,0,0,0,0,0,0,0,0,0,0,0,0,0,0,0,0,0,0,0,0,0,0,0,0,0,0,0,0,0,0,0,0,0,0,0,0,0,0,0,0,0,0,0,0,0,0,0,0,0,0],"trees":[{"base_weights":[-5.6577724E-4,1.1042728E0,-1.1787034E0,1.5495629E0,2.33237E-1,-1.662729E0,-8.966171E-1,1.6956072E0,6.931329E-1,-1.4309685E0,1.3966786E0,-1.689043E0,1.6381534E0,6.443479E-1,-1.2871876E0,1.0934707E0,1.8710803E0,3.804725E-2,9.5036316E-1,-1.4496812E0,1.4905522E0,1.708399E0,8.430359E-1,-3.1612062E-1,-1.7208298E0,9.247001E-1,1.8222922E0,6.1680038E-2,1.2246271E0,-1.0140698E0,-1.5724341E0,8.5932E-2,1.2523E0,1.9124701E0,8.5945886E-1,8.746573E-1,-1.4086105E0,1.5340939E0,5.896079E-1,-1.6489371E0,-1.2090273E0,1.2705147E0,1.683631E0,1.005202E0,1.9606113E0,9.182833E-1,-1.5948116E0,-1.5068173E0,1.045702E0,-1.748339E0,-8.51656E-1,1.2235838E0,-3.8282827E-1,1.5424756E0,8.4434634E-1,-3.8477916E-1,5.295403E-1,-4.3826416E-1,1.4590206E0,-1.5514041E0,-4.2053294E-1,-1.7773349E0,-1.3250694E0,-1.1827331E-1,8.6844176E-1,3.7071398E-1,6.384721E-1,6.323745E-1,8.083183E-1,6.188795E-1,4.415221E-2,5.5662274E-1,1.1242217E-1,3.796868E-1,-5.7580495E-1,5.2302516E-1,7.1704054E-1,-4.799045E-1,4.116962E-1,-6.7640734E-1,-4.1685897E-1,-6.062739E-1,-3.388435E-1,5.365352E-1,5.0554343E-2,3.5192183E-1,7.609121E-1,2.620321E-1,6.822186E-1,5.800926E-1,8.185296E-1,1.4133844E-1,5.039255E-1,-6.914154E-1,-3.78326E-1,-2.32145E-1,-6.7952865E-1,6.683008E-1,-7.191957E-2,-7.0349455E-1,-6.5186167E-1,-5.011025E-1,-2.1641843E-1,7.125671E-1,3.5929093E-1,-5.2811855E-1,1.1616266E-1,2.024602E-1,6.272553E-1,-2.3338914E-1,2.2772837E-1,3.4885752E-1,6.690001E-2,-3.8638166E-1,5.6135822E-2,6.5180826E-1,1.7481165E-1,-6.512994E-1,3.6909223E-1,9.777785E-2,-3.0365032E-1,-7.144906E-1,-4.1244563E-1,-8.686492E-2,-6.901223E-1],"categories":[],"categories_nodes":[],"categories_segments":[],"categories_sizes":[],"default_left":[0,0,0,0,0,0,0,0,0,0,0,0,0,0,0,0,0,0,0,0,0,0,0,0,0,0,0,0,0,0,0,0,0,0,0,0,0,0,0,0,0,0,0,0,0,0,0,0,0,0,0,0,0,0,0,0,0,0,0,0,0,0,0,0,0,0,0,0,0,0,0,0,0,0,0,0,0,0,0,0,0,0,0,0,0,0,0,0,0,0,0,0,0,0,0,0,0,0,0,0,0,0,0,0,0,0,0,0,0,0,0,0,0,0,0,0,0,0,0,0,0,0,0,0,0],"id":0,"left_children":[1,3,5,7,9,11,13,15,17,19,21,23,25,27,29,31,33,35,37,39,41,43,45,47,49,51,53,55,57,59,61,63,65,67,69,71,73,75,77,79,81,83,85,87,89,91,93,95,97,99,101,103,105,107,-1,109,111,113,115,117,119,121,123,-1,-1,-1,-1,-1,-1,-1,-1,-1,-1,-1,-1,-1,-1,-1,-1,-1,-1,-1,-1,-1,-1,-1,-1,-1,-1,-1,-1,-1,-1,-1,-1,-1,-1,-1,-1,-1,-1,-1,-1,-1,-1,-1,-1,-1,-1,-1,-1,-1,-1,-1,-1,-1,-1,-1,-1,-1,-1,-1,-1,-1,-1],"loss_changes":[3.4009478E5,5.229653E4,1.7261469E4,1.11571875E4,8.8322836E4,4.0492969E3,4.8084965E4,8.0494688E3,2.1907896E3,1.0304102E3,4.6304688E3,2.0145938E3,4.5134644E1,5.462366E3,4.9623516E3,2.7530254E3,2.4678906E3,4.4416914E3,1.964126E3,8.9034766E2,8.3862305E-1,3.0420195E3,1.7776992E3,1.7019061E3,1.0764062E3,3.2123764E1,1.7018494E1,1.684722E3,3.1562803E3,1.0385141E4,1.5753047E3,1.8672874E3,1.6606523E3,2.0298438E3,1.1966343E3,7.1266077E2,1.0071094E2,2.0405371E2,4.543926E3,2.5686328E2,9.3583984E2,4.882614E0,6.846298E0,1.1104766E3,5.469531E2,1.8101587E3,2.1934998E1,9.759888E1,3.7584796E2,4.828125E1,1.7167218E2,8.675301E0,1.1099336E1,2.5447998E0,0E0,7.830906E2,4.885298E2,3.060664E2,1.2348701E3,3.2525703E3,3.48509E3,1.0940625E2,6.265252E3,0E0,0E0,0E0,0E0,0E0,0E0,0E0,0E0,0E0,0E0,0E0,0E0,0E0,0E0,0E0,0E0,0E0,0E0,0E0,0E0,0E0,0E0,0E0,0E0,0E0,0E0,0E0,0E0,0E0,0E0,0E0,0E0,0E0,0E0,0E0,0E0,0E0,0E0,0E0,0E0,0E0,0E0,0E0,0E0,0E0,0E0,0E0,0E0,0E0,0E0,0E0,0E0,0E0,0E0,0E0,0E0,0E0,0E0,0E0,0E0,0E0,0E0],"parents":[2147483647,0,0,1,1,2,2,3,3,4,4,5,5,6,6,7,7,8,8,9,9,10,10,11,11,12,12,13,13,14,14,15,15,16,16,17,17,18,18,19,19,20,20,21,21,22,22,23,23,24,24,25,25,26,26,27,27,28,28,29,29,30,30,31,31,32,32,33,33,34,34,35,35,36,36,37,37,38,38,39,39,40,40,41,41,42,42,43,43,44,44,45,45,46,46,47,47,48,48,49,49,50,50,51,51,52,52,53,53,55,55,56,56,57,57,58,58,59,59,60,60,61,61,62,62],"right_children":[2,4,6,8,10,12,14,16,18,20,22,24,26,28,30,32,34,36,38,40,42,44,46,48,50,52,54,56,58,60,62,64,66,68,70,72,74,76,78,80,82,84,86,88,90,92,94,96,98,100,102,104,106,108,-1,110,112,114,116,118,120,122,124,-1,-1,-1,-1,-1,-1,-1,-1,-1,-1,-1,-1,-1,-1,-1,-1,-1,-1,-1,-1,-1,-1,-1,-1,-1,-1,-1,-1,-1,-1,-1,-1,-1,-1,-1,-1,-1,-1,-1,-1,-1,-1,-1,-1,-1,-1,-1,-1,-1,-1,-1,-1,-1,-1,-1,-1,-1,-1,-1,-1,-1,-1],"split_conditions":[8.3E1,6E1,8.5E1,1E0,6.1E1,9.85E0,1.17E2,4.043E3,1.3E1,9.85E0,7.2E1,8.4E1,8.500004E-1,1E0,2.4E2,2.1E-1,5.27E0,1.2E1,3.6E1,1E0,8.55E4,1E0,9.000046E-1,5.859398E-1,6.73E0,8.46E-1,1.2725E5,1.179E5,5.6E-1,1.25E2,2.43E2,1E0,7.499925E-1,1.93E0,1E0,8.34E-1,7.104E3,2.5E1,3.7E1,6.54E0,2.2147E4,7.5E4,8.500004E-1,6.7E1,4.043E3,7.4E1,7.403E3,1E0,1E0,1.54E5,8.6E-1,1.25E2,1.641E3,2.22E4,8.4434634E-1,6.4E0,1E0,9.1E1,1.0921E4,9.36E0,1.8E2,9.85E0,2.88E2,-1.1827331E-1,8.6844176E-1,3.7071398E-1,6.384721E-1,6.323745E-1,8.083183E-1,6.188795E-1,4.415221E-2,5.5662274E-1,1.1242217E-1,3.796868E-1,-5.7580495E-1,5.2302516E-1,7.1704054E-1,-4.799045E-1,4.116962E-1,-6.7640734E-1,-4.1685897E-1,-6.062739E-1,-3.388435E-1,5.365352E-1,5.0554343E-2,3.5192183E-1,7.609121E-1,2.620321E-1,6.822186E-1,5.800926E-1,8.185296E-1,1.4133844E-1,5.039255E-1,-6.914154E-1,-3.78326E-1,-2.32145E-1,-6.7952865E-1,6.683008E-1,-7.191957E-2,-7.0349455E-1,-6.5186167E-1,-5.011025E-1,-2.1641843E-1,7.125671E-1,3.5929093E-1,-5.2811855E-1,1.1616266E-1,2.024602E-1,6.272553E-1,-2.3338914E-1,2.2772837E-1,3.4885752E-1,6.690001E-2,-3.8638166E-1,5.6135822E-2,6.5180826E-1,1.7481165E-1,-6.512994E-1,3.6909223E-1,9.777785E-2,-3.0365032E-1,-7.144906E-1,-4.1244563E-1,-8.686492E-2,-6.901223E-1],"split_indices":[0,0,0,4,0,1,0,2,0,1,0,0,3,5,0,1,1,0,0,5,8,5,3,3,1,3,6,8,3,0,0,3,3,1,7,3,6,0,0,1,2,8,3,0,2,0,2,7,4,8,3,2,2,6,0,1,4,0,2,1,0,1,0,0,0,0,0,0,0,0,0,0,0,0,0,0,0,0,0,0,0,0,0,0,0,0,0,0,0,0,0,0,0,0,0,0,0,0,0,0,0,0,0,0,0,0,0,0,0,0,0,0,0,0,0,0,0,0,0,0,0,0,0,0,0],"split_type":[0,0,0,0,0,0,0,0,0,0,0,0,0,0,0,0,0,0,0,0,0,0,0,0,0,0,0,0,0,0,0,0,0,0,0,0,0,0,0,0,0,0,0,0,0,0,0,0,0,0,0,0,0,0,0,0,0,0,0,0,0,0,0,0,0,0,0,0,0,0,0,0,0,0,0,0,0,0,0,0,0,0,0,0,0,0,0,0,0,0,0,0,0,0,0,0,0,0,0,0,0,0,0,0,0,0,0,0,0,0,0,0,0,0,0,0,0,0,0,0,0,0,0,0,0],"sum_hessian":[2.6127536E5,1.348321E5,1.2644325E5,8.921972E4,4.561238E4,4.655345E4,7.9889805E4,7.622018E4,1.2999543E4,1.8767123E4,2.6845256E4,4.618624E4,3.6721033E2,1.6154033E4,6.373577E4,1.7202887E4,5.901729E4,3.6659087E3,9.333634E3,1.8648686E4,1.1843896E2,1.717241E4,9.672846E3,1.0456327E3,4.5140605E4,7.7803E1,2.8940732E2,8.0615303E3,8.092503E3,3.2564768E4,3.1171004E4,2.34301E3,1.4859877E4,5.6695836E4,2.3214531E3,2.3231875E3,1.3427212E3,3.5625845E3,5.77105E3,1.0195414E4,8.4532705E3,6.2440624E1,5.5998337E1,4.535865E3,1.2636545E4,9.384429E3,2.884162E2,5.5775336E2,4.878793E2,4.375378E4,1.386826E3,6.3431744E1,1.4371254E1,1.5337598E2,1.3603136E2,4.1252935E3,3.936237E3,9.9954553E2,7.0929575E3,1.7089898E4,1.5474867E4,1.7042078E4,1.4128926E4,1.9819943E3,3.610158E2,7.6375786E3,7.222299E3,1.3970346E4,4.2725492E4,1.2091676E3,1.1122855E3,1.240388E3,1.0827997E3,1.6601276E1,1.3261199E3,1.9051824E3,1.6574021E3,1.1375591E3,4.6334907E3,9.530867E3,6.6454663E2,4.5725366E3,3.8807341E3,5.847614E1,3.964484E0,1.4123474E1,4.1874863E1,3.0266357E3,1.5092295E3,1.8221759E3,1.0814369E4,3.5373108E3,5.847118E3,2.3638235E2,5.203385E1,9.712986E1,4.6062347E2,3.226099E2,1.6526942E2,4.020408E4,3.5497E3,6.0260156E2,7.842245E2,2.00702E1,4.336154E1,5.2033854E0,9.16787E0,4.7078247E0,1.4866815E2,3.4149075E3,7.10386E2,2.021639E3,1.914598E3,5.22073E2,4.7747253E2,6.077802E3,1.0151557E3,1.6575756E4,5.1414404E2,5.2212256E3,1.0253643E4,1.683865E4,2.0342758E2,3.7504019E3,1.0378523E4],"tree_param":{"num_deleted":"0","num_feature":"9","num_nodes":"125","size_leaf_vector":"1"}},{"base_weights":[-1.7961074E-2,7.1549183E-1,-8.356136E-1,9.897002E-1,1.4855736E-1,-1.2078607E0,-6.2669086E-1,1.0883058E0,4.257848E-1,-1.0228945E0,9.325654E-1,-1.7192803E-1,-1.2686191E0,3.9284527E-1,-9.231354E-1,6.702077E-1,1.2165428E0,1.436373E0,3.342322E-1,-1.189913E0,-8.306759E-1,1.0902568E0,1.8120441E-1,6.8434036E-1,-1.6673763E0,-1.2982876E0,6.501961E-1,-2.0876616E-1,6.4954716E-1,-8.01798E-1,-1.4115747E0,5.130155E-1,1.4247557E0,1.2464468E0,5.260236E-1,-1.6505174E-1,1.6274105E0,-6.2627685E-1,4.901901E-1,-1.2185808E0,9.5742893E-1,-1.0735303E0,-4.6097732E-1,7.712518E-1,1.3490844E0,-6.8118155E-2,9.694944E-1,1.055674E0,-1.4858902E-1,-2.0204985E0,-1.2755772E0,-1.3161345E0,-6.869372E-1,3.342595E-2,1.0644717E0,1.5706548E-1,-9.833362E-1,9.132404E-1,-1.5412894E-3,-9.0990376E-1,1.12326376E-1,-1.4118903E0,1.7592373E-1,2.4939178E-1,-4.4519088E-1,4.458294E-1,5.8563346E-1,3.8980532E-1,5.321877E-1,3.860303E-1,-2.1717845E-1,5.261853E-1,-2.1161906E-1,6.6437954E-1,2.4707346E-1,-2.960663E-1,1.14483334E-1,-9.050961E-2,2.7963987E-1,-5.033755E-1,-2.7776462E-1,5.083127E-1,3.3457103E-1,4.2308202E-1,-4.4501144E-1,-3.967554E-1,9.635537E-3,3.2762873E-1,-4.0157413E-1,5.5777013E-1,1.1853623E-2,-1.3562368E-1,5.2860475E-1,6.088057E-1,2.9713026E-1,-7.600149E-2,5.276093E-1,2.3318712E-1,-2.0387053E-1,1.4139062E-1,-8.18217E-1,-5.136735E-1,-1.1713847E-1,-5.306695E-1,-4.7938162E-1,9.896959E-2,-3.5043728E-1,2.9304776E-1,-5.7806575E-1,2.3259957E-1,4.782817E-1,-6.6578664E-2,2.5504005E-1,-4.0715256E-1,4.7736412E-1,5.9823877E-1,3.086715E-1,-1.3468423E-1,3.1433663E-1,-5.324177E-1,-2.9383835E-1,-1.4368789E-1,3.5850003E-1,-5.648698E-1,-2.0580585E-1],"categories":[],"categories_nodes":[],"categories_segments":[],"categories_sizes":[],"default_left":[0,0,0,0,0,0,0,0,0,0,0,0,0,0,0,0,0,0,0,0,0,0,0,0,0,0,0,0,0,0,0,0,0,0,0,0,0,0,0,0,0,0,0,0,0,0,0,0,0,0,0,0,0,0,0,0,0,0,0,0,0,0,0,0,0,0,0,0,0,0,0,0,0,0,0,0,0,0,0,0,0,0,0,0,0,0,0,0,0,0,0,0,0,0,0,0,0,0,0,0,0,0,0,0,0,0,0,0,0,0,0,0,0,0,0,0,0,0,0,0,0,0,0,0,0],"id":1,"left_children":[1,3,5,7,9,11,13,15,17,19,21,23,25,27,29,31,33,35,37,39,41,43,45,47,49,51,53,55,57,59,61,63,65,67,69,71,73,75,77,79,81,83,85,87,89,91,93,95,97,99,101,103,105,107,109,111,113,115,117,119,121,123,-1,-1,-1,-1,-1,-1,-1,-1,-1,-1,-1,-1,-1,-1,-1,-1,-1,-1,-1,-1,-1,-1,-1,-1,-1,-1,-1,-1,-1,-1,-1,-1,-1,-1,-1,-1,-1,-1,-1,-1,-1,-1,-1,-1,-1,-1,-1,-1,-1,-1,-1,-1,-1,-1,-1,-1,-1,-1,-1,-1,-1,-1,-1],"loss_changes":[1.4235986E5,1.9452746E4,8.728086E3,4.6888438E3,3.746943E4,2.539211E3,2.1731584E4,3.8472344E3,1.1607454E3,5.231543E2,2.8953555E3,2.8677065E3,2.1714453E3,2.501811E3,3.2991016E3,1.9976108E3,1.1330391E3,3.194392E2,1.7256385E3,5.4083594E2,6.823906E2,1.6657949E3,8.338452E2,4.408675E2,1.0765137E2,4.0771094E2,1.4855322E2,1.3734752E3,1.949354E3,4.410092E3,7.716797E0,2.5072832E3,3.21709E1,1.2004375E3,1.0728717E3,6.2240536E1,2.9492188E1,1.6768384E2,1.4833267E3,1.7862012E2,2.286316E0,3.8404004E2,7.780808E2,7.7014014E2,6.669199E2,1.2149711E3,1.25409485E2,3.2376733E2,1.17076546E2,2.673877E1,2.562683E0,4.2054688E1,1.8933539E2,2.4587279E2,2.0659271E1,5.121614E2,1.1934619E2,6.6389746E2,8.647956E2,2.9442344E3,1.7458041E3,1.3730469E0,0E0,0E0,0E0,0E0,0E0,0E0,0E0,0E0,0E0,0E0,0E0,0E0,0E0,0E0,0E0,0E0,0E0,0E0,0E0,0E0,0E0,0E0,0E0,0E0,0E0,0E0,0E0,0E0,0E0,0E0,0E0,0E0,0E0,0E0,0E0,0E0,0E0,0E0,0E0,0E0,0E0,0E0,0E0,0E0,0E0,0E0,0E0,0E0,0E0,0E0,0E0,0E0,0E0,0E0,0E0,0E0,0E0,0E0,0E0,0E0,0E0,0E0,0E0],"parents":[2147483647,0,0,1,1,2,2,3,3,4,4,5,5,6,6,7,7,8,8,9,9,10,10,11,11,12,12,13,13,14,14,15,15,16,16,17,17,18,18,19,19,20,20,21,21,22,22,23,23,24,24,25,25,26,26,27,27,28,28,29,29,30,30,31,31,32,32,33,33,34,34,35,35,36,36,37,37,38,38,39,39,40,40,41,41,42,42,43,43,44,44,45,45,46,46,47,47,48,48,49,49,50,50,51,51,52,52,53,53,54,54,55,55,56,56,57,57,58,58,59,59,60,60,61,61],"right_children":[2,4,6,8,10,12,14,16,18,20,22,24,26,28,30,32,34,36,38,40,42,44,46,48,50,52,54,56,58,60,62,64,66,68,70,72,74,76,78,80,82,84,86,88,90,92,94,96,98,100,102,104,106,108,110,112,114,116,118,120,122,124,-1,-1,-1,-1,-1,-1,-1,-1,-1,-1,-1,-1,-1,-1,-1,-1,-1,-1,-1,-1,-1,-1,-1,-1,-1,-1,-1,-1,-1,-1,-1,-1,-1,-1,-1,-1,-1,-1,-1,-1,-1,-1,-1,-1,-1,-1,-1,-1,-1,-1,-1,-1,-1,-1,-1,-1,-1,-1,-1,-1,-1,-1,-1],"split_conditions":[8.1E1,6E1,8.5E1,1E0,6.1E1,8.4E1,1.2E2,4.043E3,1.76E0,1E0,1E0,1E0,9.36E0,9.1E1,9.000046E-1,4.9E1,5.27E0,6.167E3,4.49E0,9.85E0,4.24E0,2.2147E4,6.12E0,1E0,8.3E1,6.73E0,9.85E0,9E1,1E0,6.54E0,7.9723E4,4.8E1,3.3E4,1.76E0,4.8E1,1.2E1,1E0,4.9E1,2.55E4,6.54E0,1.25E2,7.104E3,2.2147E4,9.000046E-1,7.8E1,1E0,7.31E0,5.1724E-1,7.500005E-1,7.104E3,6.4E1,1.54E5,7.97E0,9.81E0,8.500004E-1,1.56E5,9.85E0,2.5083E4,6.02E0,1.22E2,8.500133E-1,3.2389E4,1.7592373E-1,2.4939178E-1,-4.4519088E-1,4.458294E-1,5.8563346E-1,3.8980532E-1,5.321877E-1,3.860303E-1,-2.1717845E-1,5.261853E-1,-2.1161906E-1,6.6437954E-1,2.4707346E-1,-2.960663E-1,1.14483334E-1,-9.050961E-2,2.7963987E-1,-5.033755E-1,-2.7776462E-1,5.083127E-1,3.3457103E-1,4.2308202E-1,-4.4501144E-1,-3.967554E-1,9.635537E-3,3.2762873E-1,-4.0157413E-1,5.5777013E-1,1.1853623E-2,-1.3562368E-1,5.2860475E-1,6.088057E-1,2.9713026E-1,-7.600149E-2,5.276093E-1,2.3318712E-1,-2.0387053E-1,1.4139062E-1,-8.18217E-1,-5.136735E-1,-1.1713847E-1,-5.306695E-1,-4.7938162E-1,9.896959E-2,-3.5043728E-1,2.9304776E-1,-5.7806575E-1,2.3259957E-1,4.782817E-1,-6.6578664E-2,2.5504005E-1,-4.0715256E-1,4.7736412E-1,5.9823877E-1,3.086715E-1,-1.3468423E-1,3.1433663E-1,-5.324177E-1,-2.9383835E-1,-1.4368789E-1,3.5850003E-1,-5.648698E-1,-2.0580585E-1],"split_indices":[0,0,0,4,0,0,0,2,1,5,4,7,1,0,3,0,1,2,1,1,1,2,1,4,0,1,1,0,4,1,2,0,6,1,0,0,7,0,8,1,2,6,2,3,0,5,1,3,3,6,5,8,1,1,3,6,1,6,1,0,3,2,0,0,0,0,0,0,0,0,0,0,0,0,0,0,0,0,0,0,0,0,0,0,0,0,0,0,0,0,0,0,0,0,0,0,0,0,0,0,0,0,0,0,0,0,0,0,0,0,0,0,0,0,0,0,0,0,0,0,0,0,0,0,0],"split_type":[0,0,0,0,0,0,0,0,0,0,0,0,0,0,0,0,0,0,0,0,0,0,0,0,0,0,0,0,0,0,0,0,0,0,0,0,0,0,0,0,0,0,0,0,0,0,0,0,0,0,0,0,0,0,0,0,0,0,0,0,0,0,0,0,0,0,0,0,0,0,0,0,0,0,0,0,0,0,0,0,0,0,0,0,0,0,0,0,0,0,0,0,0,0,0,0,0,0,0,0,0,0,0,0,0,0,0,0,0,0,0,0,0,0,0,0,0,0,0,0,0,0,0,0,0],"sum_hessian":[2.3737731E5,1.2513163E5,1.1224568E5,8.433834E4,4.0793293E4,4.0347367E4,7.1898305E4,7.178435E4,1.2553994E4,1.6355125E4,2.4438166E4,2.2357297E3,3.811164E4,1.6196033E4,5.5702273E4,1.6852305E4,5.4932047E4,1.0403943E3,1.15136E4,8.745652E3,7.6094727E3,2.0198182E4,4.2399844E3,1.4223824E3,8.133474E2,3.753197E4,5.7967096E2,4.843975E3,1.1352059E4,4.4622496E4,1.1079777E4,1.3949597E4,2.9027083E3,5.265033E4,2.2817156E3,1.10912415E2,9.2948193E2,1.607478E3,9.906122E3,8.631286E3,1.1436601E2,4.5903022E3,3.0191704E3,9.050902E3,1.1147279E4,3.2225684E3,1.01741583E3,9.83422E2,4.3896045E2,4.2341574E2,3.8993164E2,3.6465156E4,1.0668123E3,2.3378105E2,3.4588992E2,3.2911501E3,1.5528251E3,8.0791626E3,3.2728955E3,3.990346E4,4.7190366E3,1.1078363E4,1.4137027E0,1.30633545E4,8.8624304E2,3.3322412E2,2.5694841E3,1.2433906E4,4.021642E4,1.6175448E3,6.6417084E2,2.0855791E1,9.0056625E1,8.9835315E2,3.1128794E1,1.4294441E3,1.7803387E2,2.2363389E3,7.669783E3,8.018741E3,6.1254504E2,2.6565601E1,8.7800415E1,8.154705E1,4.508755E3,1.440469E3,1.5787015E3,8.814534E3,2.3636887E2,1.0776837E4,3.7044266E2,2.6980352E3,5.245333E2,2.9264505E2,7.2477075E2,1.7172006E2,8.117019E2,1.4465761E2,2.9430286E2,4.1463523E0,4.1926938E2,3.859382E2,3.9934473E0,3.344899E4,3.0161682E3,1.7950539E2,8.8730695E2,1.5940901E2,7.437205E1,7.622443E1,2.696655E2,1.9677211E3,1.323429E3,1.5296147E3,2.3210358E1,1.5761327E3,6.50303E3,2.2964841E3,9.764114E2,1.1724534E4,2.8178926E4,2.9472744E3,1.7717621E3,1.1073709E4,4.6541595E0],"tree_param":{"num_deleted":"0","num_feature":"9","num_nodes":"125","size_leaf_vector":"1"}},{"base_weights":[-2.0305276E-2,5.115204E-1,-6.486486E-1,7.16121E-1,9.805841E-2,-1.0456042E0,-4.5863587E-1,6.129913E-1,1.1399124E0,-7.929466E-1,6.240956E-1,-1.0810764E0,1.9111374E-1,2.5470865E-1,-6.903298E-1,7.237984E-1,-1.0489914E0,1.1857526E0,8.287615E-1,-8.8353646E-1,-4.128455E-1,8.405354E-1,2.8979054E-1,-2.2159094E-1,-1.1051216E0,-1.3509443E-1,7.671912E-1,1.2108616E0,1.6068302E-1,-4.4455105E-1,-9.707311E-1,5.573658E-1,1.2128853E0,-7.421445E-1,-1.9050714E0,1.2099392E0,9.466432E-1,9.018688E-1,-9.8357415E-1,-9.052475E-1,3.473789E-1,-8.301391E-1,5.917202E-1,4.2454973E-1,1.0248513E0,-2.2994064E-1,5.718981E-1,2.949535E-1,-1.0648826E0,-1.1180824E0,-5.6990224E-1,-4.1734102E-1,4.979899E-1,3.6960685E-1,8.913044E-1,-9.515107E-1,1.287549E0,-9.693514E-2,5.517165E-1,-7.015457E-1,9.8092693E-1,-1.1830379E0,-7.587744E-1,3.1322214E-1,-5.7068616E-1,4.8928547E-1,3.2028955E-1,-4.1204664E-1,1.62279E-1,-1.0547887E0,-5.396444E-1,4.3249774E-1,4.9620852E-1,4.6401086E-1,2.5934342E-1,3.1457612E-1,4.8617777E-1,-8.031448E-2,-6.155351E-1,2.3320425E-1,-3.694424E-1,-8.660927E-2,2.3938899E-1,-2.5248575E-1,-5.4286164E-1,5.931943E-1,-2.1359084E-2,8.058829E-2,3.6962587E-1,2.552072E-1,4.4088894E-1,-3.952475E-1,3.5006627E-2,5.044319E-2,4.2103824E-1,-5.762844E-2,2.8695828E-1,-2.6333687E-1,-4.4082576E-1,-4.5266756E-1,-3.8900647E-1,-1.1537423E-2,-3.8466987E-1,-1.2103335E-1,-4.644586E-1,-1.9260375E-1,9.6205693E-1,2.5017974E-1,-1.7351335E-1,2.4823205E-1,4.8483768E-1,1.505845E-1,-4.8404852E-1,-3.707041E-1,5.2551585E-1,-1.7866363E-1,3.9069332E-2,3.9655004E-2,2.693492E-1,-4.0283427E-1,-1.598616E-1,5.98997E-1,1.9914235E-1,-4.7757062E-1,-1.7725043E-1,1.23609975E-2,-4.974161E-1],"categories":[],"categories_nodes":[],"categories_segments":[],"categories_sizes":[],"default_left":[0,0,0,0,0,0,0,0,0,0,0,0,0,0,0,0,0,0,0,0,0,0,0,0,0,0,0,0,0,0,0,0,0,0,0,0,0,0,0,0,0,0,0,0,0,0,0,0,0,0,0,0,0,0,0,0,0,0,0,0,0,0,0,0,0,0,0,0,0,0,0,0,0,0,0,0,0,0,0,0,0,0,0,0,0,0,0,0,0,0,0,0,0,0,0,0,0,0,0,0,0,0,0,0,0,0,0,0,0,0,0,0,0,0,0,0,0,0,0,0,0,0,0,0,0,0,0],"id":2,"left_children":[1,3,5,7,9,11,13,15,17,19,21,23,25,27,29,31,33,35,37,39,41,43,45,47,49,51,53,55,57,59,61,63,65,67,69,71,73,75,77,79,81,83,85,87,89,91,93,95,97,99,101,103,105,107,109,111,113,115,117,119,121,123,125,-1,-1,-1,-1,-1,-1,-1,-1,-1,-1,-1,-1,-1,-1,-1,-1,-1,-1,-1,-1,-1,-1,-1,-1,-1,-1,-1,-1,-1,-1,-1,-1,-1,-1,-1,-1,-1,-1,-1,-1,-1,-1,-1,-1,-1,-1,-1,-1,-1,-1,-1,-1,-1,-1,-1,-1,-1,-1,-1,-1,-1,-1,-1,-1],"loss_changes":[6.7745305E4,9.288057E3,7.0085234E3,3.2087578E3,1.7037777E4,1.3200781E3,1.0388227E4,1.0881361E4,2.0304297E2,4.6392676E2,1.6533379E3,6.03875E2,1.5814897E2,1.3850662E3,3.2687148E3,4.5071406E3,9.6739355E2,7.013281E1,2.4719275E2,2.9180566E2,1.0912782E3,1.0628086E3,1.3177227E3,3.48392E2,1.960586E2,9.660397E1,1.434996E1,2.3120032E2,1.4137673E3,9.26458E3,9.953418E2,1.8508434E4,5.789453E1,9.0064905E2,3.8891748E2,4.204883E1,7.230151E1,6.2570923E1,3.1015411E1,2.9362012E2,2.7202793E1,1.9101904E2,4.397197E2,4.7465436E2,2.8627832E2,7.6141693E2,1.2479247E3,9.231906E1,3.1395874E0,5.2726562E1,1.4337758E2,3.1170372E1,3.140985E2,1.6117924E1,1.8503204E1,1.753167E1,7.9891846E1,5.7596655E2,3.067495E2,1.9753984E3,9.62522E2,8.810449E1,4.246981E3,0E0,0E0,0E0,0E0,0E0,0E0,0E0,0E0,0E0,0E0,0E0,0E0,0E0,0E0,0E0,0E0,0E0,0E0,0E0,0E0,0E0,0E0,0E0,0E0,0E0,0E0,0E0,0E0,0E0,0E0,0E0,0E0,0E0,0E0,0E0,0E0,0E0,0E0,0E0,0E0,0E0,0E0,0E0,0E0,0E0,0E0,0E0,0E0,0E0,0E0,0E0,0E0,0E0,0E0,0E0,0E0,0E0,0E0,0E0,0E0,0E0,0E0,0E0,0E0],"parents":[2147483647,0,0,1,1,2,2,3,3,4,4,5,5,6,6,7,7,8,8,9,9,10,10,11,11,12,12,13,13,14,14,15,15,16,16,17,17,18,18,19,19,20,20,21,21,22,22,23,23,24,24,25,25,26,26,27,27,28,28,29,29,30,30,31,31,32,32,33,33,34,34,35,35,36,36,37,37,38,38,39,39,40,40,41,41,42,42,43,43,44,44,45,45,46,46,47,47,48,48,49,49,50,50,51,51,52,52,53,53,54,54,55,55,56,56,57,57,58,58,59,59,60,60,61,61,62,62],"right_children":[2,4,6,8,10,12,14,16,18,20,22,24,26,28,30,32,34,36,38,40,42,44,46,48,50,52,54,56,58,60,62,64,66,68,70,72,74,76,78,80,82,84,86,88,90,92,94,96,98,100,102,104,106,108,110,112,114,116,118,120,122,124,126,-1,-1,-1,-1,-1,-1,-1,-1,-1,-1,-1,-1,-1,-1,-1,-1,-1,-1,-1,-1,-1,-1,-1,-1,-1,-1,-1,-1,-1,-1,-1,-1,-1,-1,-1,-1,-1,-1,-1,-1,-1,-1,-1,-1,-1,-1,-1,-1,-1,-1,-1,-1,-1,-1,-1,-1,-1,-1,-1,-1,-1,-1,-1,-1],"split_conditions":[8.3E1,6E1,8.5E1,4.9E1,6.1E1,8.45E0,1.2E2,4.8E1,1E0,1E0,7.2E1,8.4E1,9.85E0,1.55E4,2.4E2,3.7E1,7.9723E4,5.9E1,1E0,9.36E0,3.2389E4,1E0,7.3086053E-1,1E0,6.73E0,1.425E5,8.500004E-1,8.4998816E-1,2.029E5,1.83E2,2.43E2,3.6E1,4.13E5,1E0,4.24E0,4.043E3,1E0,6.12E0,5.5E1,7.104E3,8.500004E-1,2.2853E4,6.1672E4,6.7E1,4.016E3,1.98E0,1E0,9.35E4,1.01E0,1.54E5,8.14E0,9.81E0,8.500022E-1,8.235E-1,1.2725E5,6.9E1,4.043E3,9.1E1,1.98E0,1.22E2,1E0,9.85E0,3E2,3.1322214E-1,-5.7068616E-1,4.8928547E-1,3.2028955E-1,-4.1204664E-1,1.62279E-1,-1.0547887E0,-5.396444E-1,4.3249774E-1,4.9620852E-1,4.6401086E-1,2.5934342E-1,3.1457612E-1,4.8617777E-1,-8.031448E-2,-6.155351E-1,2.3320425E-1,-3.694424E-1,-8.660927E-2,2.3938899E-1,-2.5248575E-1,-5.4286164E-1,5.931943E-1,-2.1359084E-2,8.058829E-2,3.6962587E-1,2.552072E-1,4.4088894E-1,-3.952475E-1,3.5006627E-2,5.044319E-2,4.2103824E-1,-5.762844E-2,2.8695828E-1,-2.6333687E-1,-4.4082576E-1,-4.5266756E-1,-3.8900647E-1,-1.1537423E-2,-3.8466987E-1,-1.2103335E-1,-4.644586E-1,-1.9260375E-1,9.6205693E-1,2.5017974E-1,-1.7351335E-1,2.4823205E-1,4.8483768E-1,1.505845E-1,-4.8404852E-1,-3.707041E-1,5.2551585E-1,-1.7866363E-1,3.9069332E-2,3.9655004E-2,2.693492E-1,-4.0283427E-1,-1.598616E-1,5.98997E-1,1.9914235E-1,-4.7757062E-1,-1.7725043E-1,1.23609975E-2,-4.974161E-1],"split_indices":[0,0,0,0,0,1,0,0,4,7,0,0,1,6,0,0,2,0,7,1,2,5,3,7,1,8,3,3,6,0,0,0,6,7,1,2,7,1,0,6,3,2,2,0,2,1,5,8,1,8,1,1,3,3,6,2,2,0,1,0,4,1,0,0,0,0,0,0,0,0,0,0,0,0,0,0,0,0,0,0,0,0,0,0,0,0,0,0,0,0,0,0,0,0,0,0,0,0,0,0,0,0,0,0,0,0,0,0,0,0,0,0,0,0,0,0,0,0,0,0,0,0,0,0,0,0,0],"split_type":[0,0,0,0,0,0,0,0,0,0,0,0,0,0,0,0,0,0,0,0,0,0,0,0,0,0,0,0,0,0,0,0,0,0,0,0,0,0,0,0,0,0,0,0,0,0,0,0,0,0,0,0,0,0,0,0,0,0,0,0,0,0,0,0,0,0,0,0,0,0,0,0,0,0,0,0,0,0,0,0,0,0,0,0,0,0,0,0,0,0,0,0,0,0,0,0,0,0,0,0,0,0,0,0,0,0,0,0,0,0,0,0,0,0,0,0,0,0,0,0,0,0,0,0,0,0,0],"sum_hessian":[2.0272366E5,1.0979459E5,9.2929055E4,7.344771E4,3.6346887E4,3.0079969E4,6.2849082E4,5.9076363E4,1.4371351E4,1.3492386E4,2.2854498E4,2.9241502E4,8.384677E2,1.5408583E4,4.74405E4,5.538489E4,3.6914722E3,1.2521065E4,1.8502854E3,1.0893482E4,2.5989038E3,1.3870966E4,8.983533E3,7.9636017E2,2.844514E4,5.3630945E2,3.0215826E2,1.3774496E3,1.4031134E4,2.5283793E4,2.2156707E4,4.1326176E4,1.4058712E4,2.7201985E3,9.712738E2,1.1363494E4,1.1575707E3,1.7795071E3,7.077833E1,1.0705191E4,1.8829037E2,1.8364114E3,7.624925E2,4.2609556E3,9.610011E3,3.1607688E3,5.822764E3,4.94663E2,3.0169717E2,2.777048E4,6.7466077E2,3.7140732E2,1.6490215E2,7.377698E1,2.283813E2,4.639604E1,1.3310535E3,8.459442E3,5.5716914E3,2.14226E4,3.861193E3,1.1064633E4,1.1092073E4,3.7106516E4,4.219662E3,1.3711185E4,3.4752744E2,2.1747896E3,5.454088E2,4.1606018E2,5.552136E2,2.195812E3,9.167683E3,6.714542E2,4.8611642E2,1.3058381E3,4.73669E2,3.0501608E1,4.027672E1,1.296957E2,1.0575496E4,5.8095573E1,1.301948E2,1.336382E3,5.000294E2,3.190752E2,4.434173E2,2.9474546E3,1.3135011E3,1.6048236E3,8.0051865E3,9.316052E2,2.2291633E3,3.0223848E3,2.8003794E3,2.4321686E2,2.5144612E2,2.841565E1,2.7328152E2,2.5387367E4,2.3831138E3,2.8424728E2,3.9041348E2,3.2420163E2,4.720568E1,1.0993527E2,5.4966885E1,5.6293182E1,1.7483791E1,1.2703863E2,1.0134267E2,7.4139266E0,3.8982113E1,1.478501E1,1.3162684E3,3.0234744E3,5.435968E3,1.1811776E3,4.3905137E3,1.0644646E4,1.0777954E4,1.8638794E3,1.9973137E3,1.0902954E4,1.6167807E2,4.2198574E3,6.8722163E3],"tree_param":{"num_deleted":"0","num_feature":"9","num_nodes":"127","size_leaf_vector":"1"}},{"base_weights":[-1.9899815E-2,3.8701427E-1,-5.029873E-1,5.23262E-1,-1.4567687E-1,-8.6964303E-1,-3.4482107E-1,8.806919E-2,6.993019E-1,-2.714693E-1,4.5573783E-1,-1.20783195E-1,-9.3223447E-1,-1.3039729E-1,-8.077426E-1,9.124139E-1,-9.932808E-3,3.9173436E-1,8.1051403E-1,8.8825816E-1,-3.6367154E-1,1.0706377E0,1.9481832E-1,3.5972035E-1,-1.0725292E0,-9.867135E-1,-1.0602709E-1,2.4189745E-1,-3.0316126E-1,-1.0586843E0,-5.895887E-1,-6.9879067E-1,9.6880645E-1,-2.5337389E0,1.7050879E-1,8.453423E-1,8.4869124E-2,8.749605E-1,-4.833747E-2,-3.6236748E-1,1.142058E0,-1.1426573E-1,-6.980619E-1,1.790532E-1,1.1760311E0,-2.6686708E-2,1.099947E0,6.490829E-1,-1.6720995E-1,2.3709019E-1,-1.082485E0,-1.0048352E0,-8.036061E-1,-2.677521E-1,5.815123E-1,5.745493E-2,8.803868E-1,-4.6439466E-1,5.069283E-1,-8.935026E-1,-4.572235E-1,1.2973605E-1,-1.0250934E0,3.5265377E-1,-4.0526834E-1,4.060665E-1,-3.4510145E-1,-1.0407541E0,-4.3216163E-1,-1.4610641E-2,2.3673382E-1,3.7405133E-1,-3.9366877E-1,-6.245703E-1,1.2533589E-1,3.519072E-1,-1.7742494E0,2.2775395E-1,-1.7257622E-1,4.5236063E-1,-2.6585364E-1,1.10101424E-1,4.7053805E-1,-2.1651109E-1,3.4815885E-2,-3.79454E-1,-1.3942537E-2,-1.0485562E-1,2.9016387E-1,5.2310055E-1,3.3443996E-1,-3.9529917E-1,5.8713187E-2,4.9718076E-1,3.6903128E-1,-2.0296399E-2,3.370438E-1,-4.0944692E-1,1.9916462E-2,-3.1095004E-2,1.6494687E-1,-4.7057173E-1,-3.6673555E-1,-4.2961392E-1,-3.8833338E-1,-3.7540683E-1,-2.2707157E-1,-1.8533672E-1,8.641078E-2,1.3288718E-1,3.0423427E-1,1.05807975E-1,-1.5963611E-1,1.1374587E-1,3.684214E-1,-1.1093078E-1,-4.4420853E-1,1.2309676E-1,3.1555316E-1,-3.757721E-1,5.4634035E-1,2.0302649E-1,-1.3420098E-1,-2.098351E-1,-4.3824035E-1],"categories":[],"categories_nodes":[],"categories_segments":[],"categories_sizes":[],"default_left":[0,0,0,0,0,0,0,0,0,0,0,0,0,0,0,0,0,0,0,0,0,0,0,0,0,0,0,0,0,0,0,0,0,0,0,0,0,0,0,0,0,0,0,0,0,0,0,0,0,0,0,0,0,0,0,0,0,0,0,0,0,0,0,0,0,0,0,0,0,0,0,0,0,0,0,0,0,0,0,0,0,0,0,0,0,0,0,0,0,0,0,0,0,0,0,0,0,0,0,0,0,0,0,0,0,0,0,0,0,0,0,0,0,0,0,0,0,0,0,0,0,0,0,0,0],"id":3,"left_children":[1,3,5,7,9,11,13,15,17,19,21,23,25,27,29,31,33,35,37,39,41,43,45,47,49,51,53,55,57,59,61,63,65,67,69,71,73,75,77,79,81,83,85,87,89,91,93,95,97,99,101,103,105,107,109,111,113,115,117,119,-1,121,123,-1,-1,-1,-1,-1,-1,-1,-1,-1,-1,-1,-1,-1,-1,-1,-1,-1,-1,-1,-1,-1,-1,-1,-1,-1,-1,-1,-1,-1,-1,-1,-1,-1,-1,-1,-1,-1,-1,-1,-1,-1,-1,-1,-1,-1,-1,-1,-1,-1,-1,-1,-1,-1,-1,-1,-1,-1,-1,-1,-1,-1,-1],"loss_changes":[3.3873934E4,6.788705E3,4.5684043E3,5.706205E3,1.441631E3,1.1126367E3,5.463675E3,1.7332573E3,1.813332E3,1.6856418E3,5.284624E2,8.3934515E2,9.860176E2,2.4199844E3,9.526699E2,2.0847888E2,8.733933E3,1.9607361E3,2.1557812E3,3.6937982E2,1.2173712E3,9.181824E1,4.645612E2,1.86235E2,8.54071E0,6.659375E1,1.5127045E2,1.404365E3,3.3570188E3,1.10862305E2,2.9218228E3,4.0665615E1,1.8884009E2,1.2111719E2,1.5613628E3,9.355554E2,3.1623252E3,9.327324E2,6.4427466E2,9.060423E1,2.80542E1,7.1909924E2,1.0363171E3,2.5962416E1,3.710327E1,3.1108768E2,9.261475E0,1.0679956E2,8.076822E1,4.1097423E-1,7.3570557E0,4.1904297E1,5.817151E1,1.0432946E2,1.1064285E1,8.7514905E2,6.426074E1,2.5900527E3,2.3913953E2,2.8772754E2,0E0,6.188736E2,2.0385547E2,0E0,0E0,0E0,0E0,0E0,0E0,0E0,0E0,0E0,0E0,0E0,0E0,0E0,0E0,0E0,0E0,0E0,0E0,0E0,0E0,0E0,0E0,0E0,0E0,0E0,0E0,0E0,0E0,0E0,0E0,0E0,0E0,0E0,0E0,0E0,0E0,0E0,0E0,0E0,0E0,0E0,0E0,0E0,0E0,0E0,0E0,0E0,0E0,0E0,0E0,0E0,0E0,0E0,0E0,0E0,0E0,0E0,0E0,0E0,0E0,0E0,0E0],"parents":[2147483647,0,0,1,1,2,2,3,3,4,4,5,5,6,6,7,7,8,8,9,9,10,10,11,11,12,12,13,13,14,14,15,15,16,16,17,17,18,18,19,19,20,20,21,21,22,22,23,23,24,24,25,25,26,26,27,27,28,28,29,29,30,30,31,31,32,32,33,33,34,34,35,35,36,36,37,37,38,38,39,39,40,40,41,41,42,42,43,43,44,44,45,45,46,46,47,47,48,48,49,49,50,50,51,51,52,52,53,53,54,54,55,55,56,56,57,57,58,58,59,59,61,61,62,62],"right_children":[2,4,6,8,10,12,14,16,18,20,22,24,26,28,30,32,34,36,38,40,42,44,46,48,50,52,54,56,58,60,62,64,66,68,70,72,74,76,78,80,82,84,86,88,90,92,94,96,98,100,102,104,106,108,110,112,114,116,118,120,-1,122,124,-1,-1,-1,-1,-1,-1,-1,-1,-1,-1,-1,-1,-1,-1,-1,-1,-1,-1,-1,-1,-1,-1,-1,-1,-1,-1,-1,-1,-1,-1,-1,-1,-1,-1,-1,-1,-1,-1,-1,-1,-1,-1,-1,-1,-1,-1,-1,-1,-1,-1,-1,-1,-1,-1,-1,-1,-1,-1,-1,-1,-1,-1],"split_conditions":[8.1E1,1E0,8.5E1,4.043E3,6.27E0,8.4E1,2.4E2,1.2E1,1.93E0,2.5E0,7.97E0,1E0,6.73E0,1.08E2,2.43E2,1.5E-1,1.3E1,3.6E1,5.27E0,2.2853E4,6E1,1.3E1,9.85E0,1E0,7.104E3,1.54E5,9.85E0,1E2,1.83E2,9.000046E-1,2.88E2,3E0,8.500133E-1,3.615E3,7.65E4,2.5E5,3.7E1,8.9E-1,3.6E1,1.2E1,8.000013E-1,1.3E1,1.05E5,8.75E-1,7.31E0,1.3E1,5.5E1,5.1724E-1,4.49E0,4.68E0,8.3E1,1.93E0,1E0,1.425E5,8.175E4,1E0,7.1428573E-1,1.8E2,3.52E5,9.85E0,-4.572235E-1,1E0,3E2,3.5265377E-1,-4.0526834E-1,4.060665E-1,-3.4510145E-1,-1.0407541E0,-4.3216163E-1,-1.4610641E-2,2.3673382E-1,3.7405133E-1,-3.9366877E-1,-6.245703E-1,1.2533589E-1,3.519072E-1,-1.7742494E0,2.2775395E-1,-1.7257622E-1,4.5236063E-1,-2.6585364E-1,1.10101424E-1,4.7053805E-1,-2.1651109E-1,3.4815885E-2,-3.79454E-1,-1.3942537E-2,-1.0485562E-1,2.9016387E-1,5.2310055E-1,3.3443996E-1,-3.9529917E-1,5.8713187E-2,4.9718076E-1,3.6903128E-1,-2.0296399E-2,3.370438E-1,-4.0944692E-1,1.9916462E-2,-3.1095004E-2,1.6494687E-1,-4.7057173E-1,-3.6673555E-1,-4.2961392E-1,-3.8833338E-1,-3.7540683E-1,-2.2707157E-1,-1.8533672E-1,8.641078E-2,1.3288718E-1,3.0423427E-1,1.05807975E-1,-1.5963611E-1,1.1374587E-1,3.684214E-1,-1.1093078E-1,-4.4420853E-1,1.2309676E-1,3.1555316E-1,-3.757721E-1,5.4634035E-1,2.0302649E-1,-1.3420098E-1,-2.098351E-1,-4.3824035E-1],"split_indices":[0,4,0,2,1,0,0,0,1,1,1,7,1,0,0,1,0,0,1,2,0,0,1,4,6,8,1,0,0,3,0,0,3,2,8,6,0,3,0,0,3,0,6,3,1,0,0,3,1,1,0,1,5,8,8,4,3,0,8,1,0,4,0,0,0,0,0,0,0,0,0,0,0,0,0,0,0,0,0,0,0,0,0,0,0,0,0,0,0,0,0,0,0,0,0,0,0,0,0,0,0,0,0,0,0,0,0,0,0,0,0,0,0,0,0,0,0,0,0,0,0,0,0,0,0],"split_type":[0,0,0,0,0,0,0,0,0,0,0,0,0,0,0,0,0,0,0,0,0,0,0,0,0,0,0,0,0,0,0,0,0,0,0,0,0,0,0,0,0,0,0,0,0,0,0,0,0,0,0,0,0,0,0,0,0,0,0,0,0,0,0,0,0,0,0,0,0,0,0,0,0,0,0,0,0,0,0,0,0,0,0,0,0,0,0,0,0,0,0,0,0,0,0,0,0,0,0,0,0,0,0,0,0,0,0,0,0,0,0,0,0,0,0,0,0,0,0,0,0,0,0,0,0],"sum_hessian":[1.7231658E5,9.353262E4,7.878396E4,7.4482164E4,1.9050457E4,2.3740514E4,5.5043445E4,2.1452318E4,5.3029844E4,1.5756013E4,3.2944446E3,1.8316798E3,2.1908834E4,3.762037E4,1.7423072E4,2.277605E3,1.9174715E4,1.4085131E4,3.8944715E4,1.1591285E3,1.4596885E4,9.7961456E2,2.3148298E3,1.2179987E3,6.136812E2,2.0553195E4,1.3556393E3,1.1924049E4,2.5696324E4,8.099051E3,9.324021E3,7.625054E1,2.2013545E3,1.2776971E3,1.7897018E4,5.682199E3,8.402932E3,3.6226324E4,2.7183877E3,1.9540317E2,9.6372534E2,8.362431E3,6.234454E3,1.0412854E2,8.75486E2,1.8612756E3,4.5355432E2,7.8593866E2,4.3206E2,4.285766E0,6.0939545E2,1.8694102E4,1.8590929E3,1.0984741E3,2.5716516E2,9.253221E3,2.6708284E3,2.143161E4,4.2647134E3,2.7461074E3,5.3529434E3,3.5167676E3,5.8072534E3,1.2052505E1,6.419804E1,2.1478796E3,5.3474895E1,1.21896E3,5.8737213E1,1.2001448E4,5.895569E3,5.4173145E3,2.6488483E2,1.0226116E3,7.3803203E3,3.6195227E4,3.1097519E1,1.0401915E3,1.6781962E3,3.1971844E1,1.6343132E2,3.7357426E1,9.263679E2,2.6781414E3,5.684289E3,4.5242397E3,1.7102144E3,5.8184204E1,4.5944336E1,6.268813E2,2.4860477E2,2.830278E2,1.5782478E3,2.4444965E2,2.0910469E2,1.705776E2,6.153611E2,8.584269E1,3.462173E2,1.930761E0,2.355005E0,3.810712E2,2.2832425E2,6.139005E3,1.2555098E4,1.1789655E3,6.8012744E2,7.822845E2,3.161896E2,1.0989162E2,1.4727354E2,6.3665347E3,2.8866858E3,1.7161253E2,2.4992158E3,1.662203E4,4.8095806E3,2.5016262E3,1.7630872E3,2.6925427E3,5.356489E1,1.9405905E3,1.5761771E3,7.191504E2,5.088103E3],"tree_param":{"num_deleted":"0","num_feature":"9","num_nodes":"125","size_leaf_vector":"1"}},{"base_weights":[-1.7262928E-2,4.3549556E-1,-2.8119352E-1,3.477528E-1,8.513131E-1,-2.4076103E-1,-1.0805647E0,4.417028E-1,-7.477602E-1,9.198771E-1,4.933163E-1,-2.619786E-1,1.2653838E0,9.296888E-1,-1.1051009E0,3.0368552E-1,9.2111796E-1,-5.827398E-1,-1.2546163E0,9.533386E-1,6.1409664E-1,5.479509E-1,-6.4957935E-1,-3.0534687E-2,-3.7459502E-1,5.2799803E-1,1.6086961E0,1.3702902E0,-5.951218E-1,-1.254986E0,-1.0953368E0,4.666028E-1,-7.761628E-1,9.615222E-1,6.8053967E-1,-8.1962526E-1,2.105892E-1,-1.4081733E0,-1.0976671E-1,9.643564E-1,3.5938764E-1,8.8490343E-1,2.8266892E-1,7.8877646E-1,3.51548E-1,-2.9778805E-2,-1.2812564E0,-6.6670567E-1,3.4693408E-1,-8.3069813E-1,-2.0711486E-1,1.6641316E-1,6.5730053E-1,1.0117537E0,1.808199E0,1.0133852E0,1.8782643E0,-4.0964493E-1,2.837773E-1,-5.2432305E-1,-1.0069904E0,-4.387377E-1,2.2091134E-1,1.0378366E-1,3.8554543E-1,-4.7266173E-1,-1.8796794E-1,3.9119333E-1,1.18706666E-1,2.8993252E-1,-1.290777E-1,-4.9502507E-1,-2.2895996E-1,-3.2939505E-2,2.2314434E-1,2.9878634E-1,-5.878619E-1,-3.5475126E-1,1.4919794E-1,3.3465338E-1,4.0125498E-1,3.2635683E-1,-5.0956017E-1,3.5631728E-1,-2.2971773E-1,1.597024E-1,-9.58395E-1,8.1254765E-2,3.278754E-1,-2.7444154E-2,2.3673642E-1,4.8856542E-1,-3.130519E-1,-6.4873546E-1,1.5424308E-1,-2.8704032E-1,-2.3313561E-2,2.1684504E-1,4.255579E-2,-3.5088813E-1,-7.143406E-2,-5.4435946E-2,-4.0601707E-1,1.5040982E-1,-1.7639562E-1,1.7279172E-1,4.6414384E-1,6.062493E-1,-3.8893662E-2,6.2324685E-1,8.3121675E-1,6.566546E-1,1.6979603E-1,8.061616E-1,8.069399E-2,-7.526272E-2,-4.9970937E-1,-2.2114912E-1,2.875015E-1],"categories":[],"categories_nodes":[],"categories_segments":[],"categories_sizes":[],"default_left":[0,0,0,0,0,0,0,0,0,0,0,0,0,0,0,0,0,0,0,0,0,0,0,0,0,0,0,0,0,0,0,0,0,0,0,0,0,0,0,0,0,0,0,0,0,0,0,0,0,0,0,0,0,0,0,0,0,0,0,0,0,0,0,0,0,0,0,0,0,0,0,0,0,0,0,0,0,0,0,0,0,0,0,0,0,0,0,0,0,0,0,0,0,0,0,0,0,0,0,0,0,0,0,0,0,0,0,0,0,0,0,0,0,0,0,0,0,0,0],"id":4,"left_children":[1,3,5,7,9,11,13,15,17,19,21,23,25,27,29,31,33,35,37,39,41,43,45,47,49,51,53,55,57,59,61,63,65,67,69,71,73,75,77,79,81,83,85,87,89,91,93,95,97,99,101,103,105,107,109,111,113,-1,-1,-1,115,-1,117,-1,-1,-1,-1,-1,-1,-1,-1,-1,-1,-1,-1,-1,-1,-1,-1,-1,-1,-1,-1,-1,-1,-1,-1,-1,-1,-1,-1,-1,-1,-1,-1,-1,-1,-1,-1,-1,-1,-1,-1,-1,-1,-1,-1,-1,-1,-1,-1,-1,-1,-1,-1,-1,-1,-1,-1],"loss_changes":[1.8067393E4,2.0308867E3,3.0866016E3,4.733217E3,2.3719922E2,2.9061572E3,2.2884863E2,2.8016885E3,3.023733E2,8.210596E1,9.8342255E1,2.3368643E3,3.181266E2,3.96104E1,3.8999023E0,5.786382E3,9.070264E1,5.160422E2,1.562351E2,4.7291504E1,7.205777E1,7.007663E1,2.8209936E1,7.048114E3,4.606744E3,1.8684677E1,9.8884766E1,4.2543793E0,9.325858E0,1.0169373E0,8.97998E0,2.9430479E3,5.343462E2,8.8052734E1,6.12547E1,2.1696521E2,6.444246E1,1.0620752E2,4.0984184E1,3.397461E1,1.04025055E2,4.838684E0,1.1635784E2,1.1781433E1,8.348694E1,3.8191105E1,2.1537018E1,3.383667E2,8.6472974E2,4.9108594E2,2.531228E3,1.423199E1,3.267836E1,1.2335361E2,3.6903564E1,9.875128E0,2.866726E0,0E0,0E0,0E0,1.0870625E1,0E0,3.322709E0,0E0,0E0,0E0,0E0,0E0,0E0,0E0,0E0,0E0,0E0,0E0,0E0,0E0,0E0,0E0,0E0,0E0,0E0,0E0,0E0,0E0,0E0,0E0,0E0,0E0,0E0,0E0,0E0,0E0,0E0,0E0,0E0,0E0,0E0,0E0,0E0,0E0,0E0,0E0,0E0,0E0,0E0,0E0,0E0,0E0,0E0,0E0,0E0,0E0,0E0,0E0,0E0,0E0,0E0,0E0,0E0],"parents":[2147483647,0,0,1,1,2,2,3,3,4,4,5,5,6,6,7,7,8,8,9,9,10,10,11,11,12,12,13,13,14,14,15,15,16,16,17,17,18,18,19,19,20,20,21,21,22,22,23,23,24,24,25,25,26,26,27,27,28,28,29,29,30,30,31,31,32,32,33,33,34,34,35,35,36,36,37,37,38,38,39,39,40,40,41,41,42,42,43,43,44,44,45,45,46,46,47,47,48,48,49,49,50,50,51,51,52,52,53,53,54,54,55,55,56,56,60,60,62,62],"right_children":[2,4,6,8,10,12,14,16,18,20,22,24,26,28,30,32,34,36,38,40,42,44,46,48,50,52,54,56,58,60,62,64,66,68,70,72,74,76,78,80,82,84,86,88,90,92,94,96,98,100,102,104,106,108,110,112,114,-1,-1,-1,116,-1,118,-1,-1,-1,-1,-1,-1,-1,-1,-1,-1,-1,-1,-1,-1,-1,-1,-1,-1,-1,-1,-1,-1,-1,-1,-1,-1,-1,-1,-1,-1,-1,-1,-1,-1,-1,-1,-1,-1,-1,-1,-1,-1,-1,-1,-1,-1,-1,-1,-1,-1,-1,-1,-1,-1,-1,-1],"split_conditions":[6E1,4.9E1,9.000046E-1,4.8E1,1E0,9.85E0,7.2E1,3.7E1,1E0,5.9E1,1E0,8.4E1,8.5E1,3.05E0,1.2E2,3.6E1,1E0,6.111998E-1,6.27E0,4.55E5,1E0,5.4E1,4.63E4,6.1E1,8.5E1,8.500004E-1,8.500133E-1,1.276E3,6.1E1,7.403E3,3.2389E4,2.5E1,3.448E4,4.13E5,1E0,2.16E0,1.68E3,1.76E0,5.4E4,4.739E3,1E0,5.5E1,5.1E4,7.3086053E-1,5.4E4,9.36E3,7.500005E-1,7.9723E4,7.2E1,6.54E0,3E2,8.46E-1,1.36E5,8.4998816E-1,1.425E5,6E1,2E-1,-4.0964493E-1,2.837773E-1,-5.2432305E-1,2E0,-4.387377E-1,6.02E0,1.0378366E-1,3.8554543E-1,-4.7266173E-1,-1.8796794E-1,3.9119333E-1,1.18706666E-1,2.8993252E-1,-1.290777E-1,-4.9502507E-1,-2.2895996E-1,-3.2939505E-2,2.2314434E-1,2.9878634E-1,-5.878619E-1,-3.5475126E-1,1.4919794E-1,3.3465338E-1,4.0125498E-1,3.2635683E-1,-5.0956017E-1,3.5631728E-1,-2.2971773E-1,1.597024E-1,-9.58395E-1,8.1254765E-2,3.278754E-1,-2.7444154E-2,2.3673642E-1,4.8856542E-1,-3.130519E-1,-6.4873546E-1,1.5424308E-1,-2.8704032E-1,-2.3313561E-2,2.1684504E-1,4.255579E-2,-3.5088813E-1,-7.143406E-2,-5.4435946E-2,-4.0601707E-1,1.5040982E-1,-1.7639562E-1,1.7279172E-1,4.6414384E-1,6.062493E-1,-3.8893662E-2,6.2324685E-1,8.3121675E-1,6.566546E-1,1.6979603E-1,8.061616E-1,8.069399E-2,-7.526272E-2,-4.9970937E-1,-2.2114912E-1,2.875015E-1],"split_indices":[0,0,3,0,4,1,0,0,4,0,7,0,0,1,0,0,4,3,1,6,7,0,6,0,0,3,3,2,0,2,2,0,6,6,7,1,2,1,8,2,7,5,8,3,8,2,3,2,0,1,0,3,8,3,8,2,1,0,0,0,5,0,1,0,0,0,0,0,0,0,0,0,0,0,0,0,0,0,0,0,0,0,0,0,0,0,0,0,0,0,0,0,0,0,0,0,0,0,0,0,0,0,0,0,0,0,0,0,0,0,0,0,0,0,0,0,0,0,0],"split_type":[0,0,0,0,0,0,0,0,0,0,0,0,0,0,0,0,0,0,0,0,0,0,0,0,0,0,0,0,0,0,0,0,0,0,0,0,0,0,0,0,0,0,0,0,0,0,0,0,0,0,0,0,0,0,0,0,0,0,0,0,0,0,0,0,0,0,0,0,0,0,0,0,0,0,0,0,0,0,0,0,0,0,0,0,0,0,0,0,0,0,0,0,0,0,0,0,0,0,0,0,0,0,0,0,0,0,0,0,0,0,0,0,0,0,0,0,0,0,0],"sum_hessian":[1.5119153E5,5.5677883E4,9.551366E4,4.5979336E4,9.698546E3,9.091761E4,4.5960464E3,4.234875E4,3.6305886E3,8.1369995E3,1.5615463E3,8.965624E4,1.2613656E3,5.4531002E1,4.541515E3,3.288489E4,9.463858E3,2.7421187E3,8.884699E2,7.330579E3,8.064204E2,1.4912979E3,7.02484E1,2.9346744E4,6.03095E4,4.0231854E2,8.590471E2,4.246361E1,1.20673895E1,2.621593E2,4.279356E3,2.8574914E4,4.309976E3,8.097858E3,1.3660006E3,2.1115503E3,6.305684E2,7.829888E2,1.0548118E2,7.195849E3,1.3473E2,4.419593E2,3.6446115E2,6.6718097E2,8.241169E2,3.651461E1,3.3733788E1,1.0927848E4,1.8418896E4,1.619562E4,4.411388E4,1.0717779E2,2.9514075E2,2.1822583E2,6.408213E2,2.8458471E1,1.4005141E1,9.404717E0,2.6626728E0,2.0699533E2,5.5163982E1,4.2747935E3,4.5623126E0,2.017406E4,8.400854E3,1.8520234E3,2.4579526E3,7.90126E3,1.9659819E2,1.3087748E3,5.722589E1,7.818358E2,1.3297145E3,3.4286954E2,2.8769885E2,2.1098917E1,7.6188983E2,3.9777046E1,6.570413E1,1.6865282E3,5.509321E3,1.0608119E2,2.8648802E1,4.409585E2,1.0007797E0,3.5089072E2,1.3570432E1,3.420972E1,6.3297125E2,3.0035962E2,5.2375726E2,1.324968E1,2.3264929E1,2.805539E1,5.6783977E0,1.0083955E4,8.438929E2,1.0166921E4,8.251975E3,1.5116507E4,1.0791132E3,4.0551344E4,3.5625342E3,8.0246864E1,2.6930923E1,2.0640771E2,8.873304E1,1.4954611E2,6.8679726E1,3.3962024E2,3.0120105E2,1.2039284E1,1.6419188E1,1.257246E1,1.4326813E0,1.3406796E1,4.1757183E1,1.6995964E0,2.862716E0],"tree_param":{"num_deleted":"0","num_feature":"9","num_nodes":"119","size_leaf_vector":"1"}},{"base_weights":[-1.28597105E-2,3.2418486E-1,-2.0355827E-1,3.819094E-1,-4.2011574E-1,-1.7159894E-1,-1.0311307E0,9.682669E-2,4.8930123E-1,-9.011977E-1,1.8457475E-1,-3.8141385E-1,-3.673526E-2,8.5913295E-1,-1.0569125E0,2.7963492E-1,-3.9856333E-1,5.821903E-1,1.7979337E-2,4.3869227E-2,-1.31016E0,5.8192307E-1,-7.641897E-1,-3.0034977E-1,-8.603266E-1,2.0263092E-1,-2.554322E-1,5.430284E-1,1.4286895E0,-1.0603327E0,-3.0550152E-1,-4.211698E-1,4.2724466E-1,8.442523E-1,-6.605305E-1,9.895131E-1,5.098064E-1,-8.899605E-2,6.8297845E-1,8.292297E-1,-4.914434E-1,-1.76671E0,-5.442508E-1,-4.9051806E-1,6.378715E-1,-1.5303942E0,6.1652187E-2,-6.179287E-1,-1.0673578E-1,-9.622807E-1,2.8886938E-1,3.476208E-1,-3.2141626E-1,-5.07592E-1,3.5779586E-1,6.196189E-1,3.1776878E-1,6.430418E-1,5.0292635E-1,-4.2507687E-1,-7.922161E-1,-4.5416483E-1,1.9434233E-1,7.013582E-2,-2.9007274E-1,-1.54678365E-2,2.2267313E-1,4.3668714E-1,2.0771873E-1,-4.76501E-1,-2.1369178E-2,3.999684E-1,-3.969834E-1,-5.6466573E-1,2.2562611E-1,4.1182286E-1,-5.700807E-2,3.58781E-1,-1.4666598E-1,4.5319104E-1,1.741478E-1,1.9494651E-1,-3.6413977E-1,2.5046417E-1,-7.2161704E-1,-3.3794403E-2,-9.054642E-1,5.013312E-2,-5.543075E-1,1.8548559E-1,3.038699E-1,-4.2537817E-1,-1.1273448E0,7.9857774E-2,-9.909224E-1,-1.549492E-1,-3.2851624E-1,2.8962466E-1,-8.678528E-2,-3.6037257E-1,-4.2042756E-1,3.3807492E-1,-2.359486E-1,5.954829E-3,2.5509855E-1,-2.2297977E-1,8.755847E-2,-2.907149E-1,-1.3256729E-1,4.7007608E-1,4.4967096E-2,-1.0043677E-1,2.999498E-1,-1.5552862E-1,3.606841E-1,-4.9457297E-2,-4.35698E-1,2.1173199E-1,-3.2251516E-1],"categories":[],"categories_nodes":[],"categories_segments":[],"categories_sizes":[],"default_left":[0,0,0,0,0,0,0,0,0,0,0,0,0,0,0,0,0,0,0,0,0,0,0,0,0,0,0,0,0,0,0,0,0,0,0,0,0,0,0,0,0,0,0,0,0,0,0,0,0,0,0,0,0,0,0,0,0,0,0,0,0,0,0,0,0,0,0,0,0,0,0,0,0,0,0,0,0,0,0,0,0,0,0,0,0,0,0,0,0,0,0,0,0,0,0,0,0,0,0,0,0,0,0,0,0,0,0,0,0,0,0,0,0,0,0,0,0,0,0],"id":5,"left_children":[1,3,5,7,9,11,13,15,17,19,21,23,25,27,29,31,33,35,37,39,41,43,45,47,49,51,53,55,57,59,61,63,65,67,69,71,73,75,77,79,81,83,85,87,89,91,93,95,97,99,101,103,105,107,109,-1,111,-1,113,-1,115,-1,117,-1,-1,-1,-1,-1,-1,-1,-1,-1,-1,-1,-1,-1,-1,-1,-1,-1,-1,-1,-1,-1,-1,-1,-1,-1,-1,-1,-1,-1,-1,-1,-1,-1,-1,-1,-1,-1,-1,-1,-1,-1,-1,-1,-1,-1,-1,-1,-1,-1,-1,-1,-1,-1,-1,-1,-1],"loss_changes":[8.627573E3,2.0842725E3,2.267013E3,1.3780396E3,1.0161649E3,2.335614E3,1.5713916E2,1.1159043E3,1.4314575E3,7.518867E2,5.8479895E2,1.2533105E3,2.6305024E3,6.368023E0,7.4348145E0,9.313744E2,1.0825435E3,8.04291E2,3.8320807E2,2.4861436E2,4.728225E2,6.619583E1,2.90035E2,1.698408E3,5.4821484E2,1.8231185E3,4.0607383E3,6.1572313E0,7.8032684E-1,2.9638672E-1,7.5181236E0,2.8439844E2,4.4843713E2,4.5437042E1,8.841477E2,8.695703E1,2.41996E3,2.7812518E2,1.6831009E2,2.7684418E1,1.4512057E2,7.8167725E1,4.0273615E2,3.0844692E1,2.1346191E1,1.3695538E2,7.889974E1,4.8989575E2,1.5721245E3,2.1495117E1,1.8795386E2,1.8141548E3,6.6344604E2,7.180918E2,1.5345907E3,0E0,7.3244076E0,0E0,2.5698702E0,0E0,6.713516E0,0E0,4.9949007E0,0E0,0E0,0E0,0E0,0E0,0E0,0E0,0E0,0E0,0E0,0E0,0E0,0E0,0E0,0E0,0E0,0E0,0E0,0E0,0E0,0E0,0E0,0E0,0E0,0E0,0E0,0E0,0E0,0E0,0E0,0E0,0E0,0E0,0E0,0E0,0E0,0E0,0E0,0E0,0E0,0E0,0E0,0E0,0E0,0E0,0E0,0E0,0E0,0E0,0E0,0E0,0E0,0E0,0E0,0E0,0E0],"parents":[2147483647,0,0,1,1,2,2,3,3,4,4,5,5,6,6,7,7,8,8,9,9,10,10,11,11,12,12,13,13,14,14,15,15,16,16,17,17,18,18,19,19,20,20,21,21,22,22,23,23,24,24,25,25,26,26,27,27,28,28,29,29,30,30,31,31,32,32,33,33,34,34,35,35,36,36,37,37,38,38,39,39,40,40,41,41,42,42,43,43,44,44,45,45,46,46,47,47,48,48,49,49,50,50,51,51,52,52,53,53,54,54,56,56,58,58,60,60,62,62],"right_children":[2,4,6,8,10,12,14,16,18,20,22,24,26,28,30,32,34,36,38,40,42,44,46,48,50,52,54,56,58,60,62,64,66,68,70,72,74,76,78,80,82,84,86,88,90,92,94,96,98,100,102,104,106,108,110,-1,112,-1,114,-1,116,-1,118,-1,-1,-1,-1,-1,-1,-1,-1,-1,-1,-1,-1,-1,-1,-1,-1,-1,-1,-1,-1,-1,-1,-1,-1,-1,-1,-1,-1,-1,-1,-1,-1,-1,-1,-1,-1,-1,-1,-1,-1,-1,-1,-1,-1,-1,-1,-1,-1,-1,-1,-1,-1,-1,-1,-1,-1],"split_conditions":[6E1,3E5,1E0,1.769E3,2.5E1,3.78E0,7.2E1,1E0,1E0,1.1E1,1E0,1E0,1E0,1.276E3,6.1672E4,1.955E4,1.2E1,1.2E1,1E0,2.55E5,1.3E1,9.7E-1,4.24E0,5.475004E-1,1E0,5.27E0,6.12E0,9E0,9.36E3,7.403E3,3.19E4,2.4E1,1.3E1,6E0,2.5E1,8.500004E-1,1.3E1,3E0,1E0,1.39E5,4E0,6.4E4,2.4E1,3.52E2,4.49E0,6.1672E4,1E6,7.8E1,2.5083E4,1.8E2,8.3E1,5.1724E-1,2.38E5,1.05E5,7.97E0,6.196189E-1,6.1E1,6.430418E-1,6.1672E4,-4.2507687E-1,3.5E4,-4.5416483E-1,1.2E1,7.013582E-2,-2.9007274E-1,-1.54678365E-2,2.2267313E-1,4.3668714E-1,2.0771873E-1,-4.76501E-1,-2.1369178E-2,3.999684E-1,-3.969834E-1,-5.6466573E-1,2.2562611E-1,4.1182286E-1,-5.700807E-2,3.58781E-1,-1.4666598E-1,4.5319104E-1,1.741478E-1,1.9494651E-1,-3.6413977E-1,2.5046417E-1,-7.2161704E-1,-3.3794403E-2,-9.054642E-1,5.013312E-2,-5.543075E-1,1.8548559E-1,3.038699E-1,-4.2537817E-1,-1.1273448E0,7.9857774E-2,-9.909224E-1,-1.549492E-1,-3.2851624E-1,2.8962466E-1,-8.678528E-2,-3.6037257E-1,-4.2042756E-1,3.3807492E-1,-2.359486E-1,5.954829E-3,2.5509855E-1,-2.2297977E-1,8.755847E-2,-2.907149E-1,-1.3256729E-1,4.7007608E-1,4.4967096E-2,-1.0043677E-1,2.999498E-1,-1.5552862E-1,3.606841E-1,-4.9457297E-2,-4.35698E-1,2.1173199E-1,-3.2251516E-1],"split_indices":[0,6,3,2,0,1,0,7,4,0,7,4,4,2,2,8,0,0,5,8,0,1,1,3,5,1,1,2,2,2,6,0,0,0,0,3,0,0,7,8,0,8,0,2,1,2,6,0,6,0,0,3,8,6,1,0,0,0,2,0,8,0,5,0,0,0,0,0,0,0,0,0,0,0,0,0,0,0,0,0,0,0,0,0,0,0,0,0,0,0,0,0,0,0,0,0,0,0,0,0,0,0,0,0,0,0,0,0,0,0,0,0,0,0,0,0,0,0,0],"split_type":[0,0,0,0,0,0,0,0,0,0,0,0,0,0,0,0,0,0,0,0,0,0,0,0,0,0,0,0,0,0,0,0,0,0,0,0,0,0,0,0,0,0,0,0,0,0,0,0,0,0,0,0,0,0,0,0,0,0,0,0,0,0,0,0,0,0,0,0,0,0,0,0,0,0,0,0,0,0,0,0,0,0,0,0,0,0,0,0,0,0,0,0,0,0,0,0,0,0,0,0,0,0,0,0,0,0,0,0,0,0,0,0,0,0,0,0,0,0,0],"sum_hessian":[1.3422728E5,4.8502156E4,8.572512E4,4.501219E4,3.4899644E3,8.253999E4,3.1851277E3,1.2317616E4,3.2694576E4,1.9430916E3,1.5468728E3,3.22943E4,5.0245695E4,4.1988483E1,3.1431392E3,8.998041E3,3.3195754E3,2.73115E4,5.383076E3,5.874183E2,1.3556732E3,1.0908087E3,4.5606406E2,2.7622055E4,4.672246E3,2.3989295E4,2.6256398E4,2.951466E1,1.2473823E1,3.1280793E3,1.50597105E1,1.5648616E3,7.433179E3,5.7712994E2,2.7424456E3,4.117263E3,2.3194238E4,4.6386157E3,7.4446063E2,2.37655E2,3.4976324E2,8.4773474E2,5.0793854E2,5.331483E1,1.0374939E3,2.3568892E2,2.2037514E2,1.0460175E4,1.7161879E4,4.2918115E3,3.8043466E2,1.8791E4,5.1982944E3,1.8605959E4,7.65044E3,3.2493763E0,2.6265285E1,9.219086E0,3.2547374E0,3.0949163E3,3.3163063E1,4.704904E0,1.0354807E1,5.285761E2,1.0362854E3,1.6163849E3,5.816794E3,3.2494968E2,2.5218027E2,1.4622499E3,1.2801957E3,4.096741E3,2.0522066E1,6.356025E2,2.2558635E4,2.1016173E2,4.4284536E3,6.1863947E2,1.25821205E2,1.3205783E2,1.0559717E2,1.0472874E2,2.4503452E2,1.253824E1,8.351965E2,4.0242865E2,1.05509895E2,3.2605335E1,2.0709494E1,4.309393E2,6.065546E2,1.7565654E2,6.003238E1,2.1076292E2,9.612218E0,4.905038E3,5.5551367E3,2.0089606E3,1.5152919E4,2.5512732E3,1.7405382E3,2.3300133E2,1.4743333E2,8.753759E3,1.0037242E4,3.6178074E3,1.5804869E3,8.287907E3,1.0318051E4,1.7646212E3,5.885819E3,1.17001E1,1.4565185E1,1.0211769E0,2.2335603E0,1.1072608E1,2.2090456E1,8.463449E0,1.8913583E0],"tree_param":{"num_deleted":"0","num_feature":"9","num_nodes":"119","size_leaf_vector":"1"}},{"base_weights":[-9.002368E-3,1.6047901E-1,-2.2162594E-1,1.0654647E-2,3.2814264E-1,-6.2672466E-1,-1.121928E-1,-1.8659252E-1,1.3667005E-1,9.534765E-1,1.7001458E-1,-6.697186E-1,8.057346E-2,2.0615307E-3,-4.886621E-1,2.6581454E-1,-3.132861E-1,-6.2533E-1,1.9575058E-1,9.996342E-1,-7.478982E-2,-5.7189995E-1,2.5841045E-1,-7.341082E-1,-3.7175497E-1,-3.091078E-1,3.0578673E-1,-1.0864406E-1,2.9101953E-1,-8.684956E-1,-2.774939E-1,-3.911848E-2,7.681104E-1,-2.2938566E0,-2.305055E-1,-1.2135727E0,-3.329613E-1,-1.8796484E-1,2.7693033E-1,8.6074394E-1,1.2281406E0,2.3341008E-1,-2.2953131E0,4.4380218E-1,-9.819223E-1,3.876533E-1,-2.5517654E-1,-3.3345512E-1,-7.5195044E-1,-6.4879566E-1,-2.013409E-1,4.6761099E-1,-4.5237333E-1,4.7223244E-2,1.3176781E0,1.19943224E-1,-3.0599973E-1,3.6734708E-2,4.9386194E-1,-9.3727523E-1,-3.9854166E-1,9.634591E-2,-8.8423735E-1,1.9808394E-1,-4.29422E-1,9.234103E-3,3.3979324E-1,-7.5505847E-1,-1.6465553E0,2.8061268E-1,-1.3502936E-1,-4.2299053E-1,-1.1696436E0,1.6235866E-1,-1.8788797E-1,1.6651063E-1,-4.6336386E-1,1.7535912E-1,4.615777E-2,4.044934E-1,2.8547862E-1,9.68649E-1,4.1204864E-1,-3.0769593E-1,2.272578E-1,-1.307968E0,-5.7648325E-1,-1.0591698E-1,3.5184917E-1,-2.207991E0,-2.8298256E-1,2.9272732E-1,9.0052605E-2,-1.5269858E-1,9.352239E-2,-3.767416E-2,-2.9284367E-1,-3.508118E-1,-2.811446E-1,-3.36467E-1,-1.8568183E-1,-1.1760353E-1,3.295364E-1,-1.0203277E-1,3.132328E-1,-6.3417636E-2,-2.5197372E-1,2.5911385E-1,-2.2658493E-2,5.975687E-1,3.886275E-1,1.0425305E-1,-1.4457212E-1,-3.0877504E-1,7.748706E-3,8.578716E-2,-2.7159092E-1,1.6671924E-1,6.2476736E-1,-3.3712268E-1,-4.126718E-1,3.5138E-3,-4.1329876E-1,-1.0546638E-2,3.019958E-1,4.2595193E-1,-3.672885E-1],"categories":[],"categories_nodes":[],"categories_segments":[],"categories_sizes":[],"default_left":[0,0,0,0,0,0,0,0,0,0,0,0,0,0,0,0,0,0,0,0,0,0,0,0,0,0,0,0,0,0,0,0,0,0,0,0,0,0,0,0,0,0,0,0,0,0,0,0,0,0,0,0,0,0,0,0,0,0,0,0,0,0,0,0,0,0,0,0,0,0,0,0,0,0,0,0,0,0,0,0,0,0,0,0,0,0,0,0,0,0,0,0,0,0,0,0,0,0,0,0,0,0,0,0,0,0,0,0,0,0,0,0,0,0,0,0,0,0,0,0,0,0,0,0,0,0,0],"id":6,"left_children":[1,3,5,7,9,11,13,15,17,19,21,23,25,27,29,31,33,35,37,39,41,43,45,47,49,51,53,55,57,59,61,63,65,67,69,71,73,75,77,79,81,83,85,87,89,91,93,95,97,99,101,103,105,107,109,111,113,115,117,119,121,123,125,-1,-1,-1,-1,-1,-1,-1,-1,-1,-1,-1,-1,-1,-1,-1,-1,-1,-1,-1,-1,-1,-1,-1,-1,-1,-1,-1,-1,-1,-1,-1,-1,-1,-1,-1,-1,-1,-1,-1,-1,-1,-1,-1,-1,-1,-1,-1,-1,-1,-1,-1,-1,-1,-1,-1,-1,-1,-1,-1,-1,-1,-1,-1,-1],"loss_changes":[4.4616143E3,1.7306422E3,2.4343462E3,9.044464E2,3.2145417E3,3.55271E2,1.8598302E3,8.13188E2,9.997871E2,3.115752E2,1.7023079E3,2.1069482E2,5.9080917E1,1.0612544E3,8.0699194E2,4.75542E2,1.8159144E3,2.740304E2,6.419935E2,1.9718896E2,1.9525768E2,1.1517783E3,1.5395444E3,6.420508E1,9.230011E1,2.788333E1,1.1140446E2,1.0821489E3,4.739538E2,1.1549121E2,1.4684175E3,1.0698044E3,7.105975E1,3.134568E2,1.0622421E3,1.3527856E2,1.08524185E2,2.1116377E3,4.435404E2,8.513574E1,5.549558E2,8.510802E1,1.9515808E1,2.4633038E2,2.4451606E3,1.0360784E3,2.888224E2,3.701547E1,5.1965332E1,2.5701965E1,1.160802E2,9.385116E0,1.07231865E1,2.1381828E1,2.3845673E0,7.529436E2,1.9515948E3,5.192688E2,4.1942896E2,2.6224121E1,1.1961306E2,3.2390475E2,1.6543213E2,0E0,0E0,0E0,0E0,0E0,0E0,0E0,0E0,0E0,0E0,0E0,0E0,0E0,0E0,0E0,0E0,0E0,0E0,0E0,0E0,0E0,0E0,0E0,0E0,0E0,0E0,0E0,0E0,0E0,0E0,0E0,0E0,0E0,0E0,0E0,0E0,0E0,0E0,0E0,0E0,0E0,0E0,0E0,0E0,0E0,0E0,0E0,0E0,0E0,0E0,0E0,0E0,0E0,0E0,0E0,0E0,0E0,0E0,0E0,0E0,0E0,0E0,0E0,0E0],"parents":[2147483647,0,0,1,1,2,2,3,3,4,4,5,5,6,6,7,7,8,8,9,9,10,10,11,11,12,12,13,13,14,14,15,15,16,16,17,17,18,18,19,19,20,20,21,21,22,22,23,23,24,24,25,25,26,26,27,27,28,28,29,29,30,30,31,31,32,32,33,33,34,34,35,35,36,36,37,37,38,38,39,39,40,40,41,41,42,42,43,43,44,44,45,45,46,46,47,47,48,48,49,49,50,50,51,51,52,52,53,53,54,54,55,55,56,56,57,57,58,58,59,59,60,60,61,61,62,62],"right_children":[2,4,6,8,10,12,14,16,18,20,22,24,26,28,30,32,34,36,38,40,42,44,46,48,50,52,54,56,58,60,62,64,66,68,70,72,74,76,78,80,82,84,86,88,90,92,94,96,98,100,102,104,106,108,110,112,114,116,118,120,122,124,126,-1,-1,-1,-1,-1,-1,-1,-1,-1,-1,-1,-1,-1,-1,-1,-1,-1,-1,-1,-1,-1,-1,-1,-1,-1,-1,-1,-1,-1,-1,-1,-1,-1,-1,-1,-1,-1,-1,-1,-1,-1,-1,-1,-1,-1,-1,-1,-1,-1,-1,-1,-1,-1,-1,-1,-1,-1,-1,-1,-1,-1,-1,-1,-1],"split_conditions":[8.3E1,2.2147E4,8.5E1,5.1E4,2.5776E4,8.45E0,2.4E2,2.4E1,2.1E-1,5.1E4,3.2389E4,1.179E5,8.6E-1,2.6325E5,2.43E2,1.3E1,2.5E1,2.7E1,1.3E1,6E1,1E0,2.4E1,1E0,8.4E1,3.5E0,9.1E1,1.425E5,1.2E2,4.49E0,6.73E0,3E2,1.2E1,2.1E-1,6.314E3,3.6E1,6.568E3,2.55E4,1.2E1,5.9E1,2.2853E4,6.1E1,1.3E1,2.2E5,1E0,2.5E1,3.6E1,6.27E0,1E0,1.93E0,1E0,8.6E-1,6E0,1.39E5,6E1,9.81E0,1.0921E4,1.22E2,7.999839E-1,8.500022E-1,9.000046E-1,9.000046E-1,7.5E5,2.4E1,1.9808394E-1,-4.29422E-1,9.234103E-3,3.3979324E-1,-7.5505847E-1,-1.6465553E0,2.8061268E-1,-1.3502936E-1,-4.2299053E-1,-1.1696436E0,1.6235866E-1,-1.8788797E-1,1.6651063E-1,-4.6336386E-1,1.7535912E-1,4.615777E-2,4.044934E-1,2.8547862E-1,9.68649E-1,4.1204864E-1,-3.0769593E-1,2.272578E-1,-1.307968E0,-5.7648325E-1,-1.0591698E-1,3.5184917E-1,-2.207991E0,-2.8298256E-1,2.9272732E-1,9.0052605E-2,-1.5269858E-1,9.352239E-2,-3.767416E-2,-2.9284367E-1,-3.508118E-1,-2.811446E-1,-3.36467E-1,-1.8568183E-1,-1.1760353E-1,3.295364E-1,-1.0203277E-1,3.132328E-1,-6.3417636E-2,-2.5197372E-1,2.5911385E-1,-2.2658493E-2,5.975687E-1,3.886275E-1,1.0425305E-1,-1.4457212E-1,-3.0877504E-1,7.748706E-3,8.578716E-2,-2.7159092E-1,1.6671924E-1,6.2476736E-1,-3.3712268E-1,-4.126718E-1,3.5138E-3,-4.1329876E-1,-1.0546638E-2,3.019958E-1,4.2595193E-1,-3.672885E-1],"split_indices":[0,2,0,6,2,1,0,0,1,8,2,8,3,8,0,0,0,0,0,0,7,0,4,0,1,2,8,0,1,1,0,0,1,2,0,2,8,0,0,2,0,0,6,5,0,0,1,7,1,5,3,2,6,2,1,2,0,3,3,3,3,8,2,0,0,0,0,0,0,0,0,0,0,0,0,0,0,0,0,0,0,0,0,0,0,0,0,0,0,0,0,0,0,0,0,0,0,0,0,0,0,0,0,0,0,0,0,0,0,0,0,0,0,0,0,0,0,0,0,0,0,0,0,0,0,0,0],"split_type":[0,0,0,0,0,0,0,0,0,0,0,0,0,0,0,0,0,0,0,0,0,0,0,0,0,0,0,0,0,0,0,0,0,0,0,0,0,0,0,0,0,0,0,0,0,0,0,0,0,0,0,0,0,0,0,0,0,0,0,0,0,0,0,0,0,0,0,0,0,0,0,0,0,0,0,0,0,0,0,0,0,0,0,0,0,0,0,0,0,0,0,0,0,0,0,0,0,0,0,0,0,0,0,0,0,0,0,0,0,0,0,0,0,0,0,0,0,0,0,0,0,0,0,0,0,0,0],"sum_hessian":[1.2380684E5,6.8893E4,5.491384E4,3.638313E4,3.2509871E4,1.1677332E4,4.3236508E4,1.4182631E4,2.22005E4,6.5595176E3,2.5950354E4,1.1008287E4,6.6904535E2,3.317135E4,1.0065155E4,3.102345E3,1.1080286E4,1.596049E3,2.0604451E4,6.2777715E3,2.8174652E2,2.761543E3,2.318881E4,9.049724E3,1.9585631E3,2.4477385E2,4.242715E2,2.398389E4,9.187461E3,3.5941116E3,6.4710435E3,1.9315728E3,1.1707722E3,4.4239227E2,1.0637894E4,5.2780634E2,1.0682426E3,3.5974795E3,1.700697E4,3.9104578E3,2.3673135E3,2.4897899E2,3.2767536E1,7.941414E2,1.9674015E3,1.8527025E4,4.6617866E3,3.8750613E2,8.662218E3,7.437846E2,1.2147786E3,3.7412548E1,2.073613E2,3.395909E2,8.468061E1,1.1113018E4,1.2870873E4,4.0778274E3,5.1096333E3,3.1335193E3,4.605923E2,4.005049E3,2.4659946E3,1.2743579E3,6.5721484E2,1.15534935E2,1.0552373E3,3.6509128E2,7.7300995E1,1.0949692E3,9.542925E3,4.866345E2,4.1171814E1,1.662293E2,9.020133E2,2.217752E3,1.3797274E3,8.503573E3,8.503397E3,1.9268E3,1.9836578E3,3.3368716E2,2.0336262E3,6.1667267E1,1.8731172E2,1.2662073E1,2.0105461E1,3.027269E2,4.9141452E2,1.1002418E2,1.8573773E3,5.940369E3,1.2586656E4,3.7035784E3,9.58208E2,2.4370712E2,1.4379901E2,2.4319243E3,6.2302935E3,3.6073267E2,3.8305194E2,1.1153835E3,9.939498E1,1.1485039E1,2.5927511E1,7.953387E1,1.2782743E2,4.852897E1,2.9106195E2,5.171431E1,3.2966305E1,8.600342E3,2.5126755E3,5.291132E3,7.5797417E3,3.2677466E3,8.1008075E2,4.768361E3,3.412727E2,1.5761501E3,1.5573691E3,2.8174982E2,1.7884247E2,3.3776719E3,6.2737726E2,4.121947E1,2.4247751E3],"tree_param":{"num_deleted":"0","num_feature":"9","num_nodes":"127","size_leaf_vector":"1"}},{"base_weights":[-6.19299E-3,1.1516037E-1,-1.6529691E-1,-7.109987E-2,1.9976602E-1,-5.3468347E-1,-8.457548E-2,-3.6341634E-1,-9.403868E-4,-1.5620913E-2,2.87288E-1,-6.139485E-1,-1.1232101E-1,-4.942911E-2,-1.0240661E0,-2.1931016E-1,-6.5780973E-1,-2.1986786E-1,1.0357164E-1,-5.695443E-2,4.76881E-1,1.9695173E-1,6.641749E-1,-6.4456165E-1,-1.9491342E-1,-3.774609E-1,1.2154831E-1,-1.4138429E-2,-7.886642E-1,-4.1069514E-1,-1.3684875E-1,-7.161001E-1,-9.7432196E-2,-8.2025415E-1,1.6021599E-1,-6.413869E-1,-4.5042E-3,1.5213324E-1,-9.7450405E-1,5.02032E-2,-2.4146368E-1,7.5332046E-2,8.431716E-1,2.5217515E-1,-8.474643E-1,6.912807E-1,-3.863466E-1,-7.7691174E-1,-5.91108E-1,-5.646443E-1,3.237943E-1,3.1575732E0,-4.1509095E-1,-9.439796E-2,1.4966261E0,-3.4943316E-2,1.0139412E0,-8.350629E-1,2.0018806E0,-2.624528E-1,3.1587481E-1,-3.109409E-1,1.2991974E-1,3.633825E-1,-4.98164E-2,-3.404611E-1,2.2044133E-1,2.0197307E-1,-1.9636877E-1,5.3379174E-2,-2.9298183E-1,1.0829901E-1,-9.652433E-2,1.0786467E-1,-8.25229E-3,2.528905E-1,-4.3610072E-1,-1.06828466E-1,7.321536E-2,-2.3378389E-1,1.17569445E-2,3.1022823E-1,-1.5627813E-1,4.100164E-1,1.9914208E-1,2.3360503E-1,4.2779323E-2,-1.7528902E-1,-7.98394E-1,2.8777105E-1,9.460828E-2,2.3008306E-1,-5.9339094E-1,-3.24226E-1,1.8326332E-1,-2.949526E-1,-1.9897133E-1,-2.4469875E-1,7.5126225E-1,-2.4130793E-1,4.3392277E-1,1.4987712E0,2.3734835E-1,1.8740165E-1,-1.8864255E-1,2.9270858E-1,-7.4407846E-2,8.065659E-1,4.567395E-1,3.6201667E-2,-7.977847E-2,2.1561375E-1,4.7868425E-1,-3.6107647E-1,4.4412937E-2,-8.930572E-2,9.63236E-1,3.083364E-1,-1.7540543E-1],"categories":[],"categories_nodes":[],"categories_segments":[],"categories_sizes":[],"default_left":[0,0,0,0,0,0,0,0,0,0,0,0,0,0,0,0,0,0,0,0,0,0,0,0,0,0,0,0,0,0,0,0,0,0,0,0,0,0,0,0,0,0,0,0,0,0,0,0,0,0,0,0,0,0,0,0,0,0,0,0,0,0,0,0,0,0,0,0,0,0,0,0,0,0,0,0,0,0,0,0,0,0,0,0,0,0,0,0,0,0,0,0,0,0,0,0,0,0,0,0,0,0,0,0,0,0,0,0,0,0,0,0,0,0,0,0,0,0,0],"id":7,"left_children":[1,3,5,7,9,11,13,15,17,19,21,23,25,27,29,31,33,35,37,39,41,43,45,47,49,51,53,55,57,-1,59,61,63,65,67,69,71,73,75,77,79,81,83,85,87,89,91,93,95,97,99,101,103,105,107,109,111,113,115,-1,117,-1,-1,-1,-1,-1,-1,-1,-1,-1,-1,-1,-1,-1,-1,-1,-1,-1,-1,-1,-1,-1,-1,-1,-1,-1,-1,-1,-1,-1,-1,-1,-1,-1,-1,-1,-1,-1,-1,-1,-1,-1,-1,-1,-1,-1,-1,-1,-1,-1,-1,-1,-1,-1,-1,-1,-1,-1,-1],"loss_changes":[2.204233E3,1.0206362E3,1.472831E3,4.1491107E2,8.3955945E2,2.9643408E2,1.338565E3,1.6583582E2,3.7339032E2,2.620473E2,1.0779209E3,9.542432E1,8.704201E1,1.0195427E3,3.184204E0,1.5921884E2,1.7113452E2,4.7868954E2,5.785877E2,2.3481796E2,1.4647218E2,1.4739299E3,1.7486108E2,4.824756E1,9.829872E1,9.010715E1,2.2197096E2,7.979458E2,2.3390283E2,0E0,1.9888309E0,3.3542694E1,5.791989E1,4.6411194E1,4.869073E1,1.26016174E2,2.2774611E2,2.1466388E2,8.997476E1,3.1677744E2,4.0539648E2,1.5648283E2,3.1701996E1,1.1693129E3,6.015058E2,7.60603E1,1.6551152E2,8.357922E1,6.72146E1,3.6686134E1,1.5213297E2,6.37294E0,3.302623E1,4.9256012E1,1.410321E1,7.546072E2,6.2938904E1,1.1236047E2,2.793135E1,0E0,2.367321E0,0E0,0E0,0E0,0E0,0E0,0E0,0E0,0E0,0E0,0E0,0E0,0E0,0E0,0E0,0E0,0E0,0E0,0E0,0E0,0E0,0E0,0E0,0E0,0E0,0E0,0E0,0E0,0E0,0E0,0E0,0E0,0E0,0E0,0E0,0E0,0E0,0E0,0E0,0E0,0E0,0E0,0E0,0E0,0E0,0E0,0E0,0E0,0E0,0E0,0E0,0E0,0E0,0E0,0E0,0E0,0E0,0E0,0E0],"parents":[2147483647,0,0,1,1,2,2,3,3,4,4,5,5,6,6,7,7,8,8,9,9,10,10,11,11,12,12,13,13,14,14,15,15,16,16,17,17,18,18,19,19,20,20,21,21,22,22,23,23,24,24,25,25,26,26,27,27,28,28,30,30,31,31,32,32,33,33,34,34,35,35,36,36,37,37,38,38,39,39,40,40,41,41,42,42,43,43,44,44,45,45,46,46,47,47,48,48,49,49,50,50,51,51,52,52,53,53,54,54,55,55,56,56,57,57,58,58,60,60],"right_children":[2,4,6,8,10,12,14,16,18,20,22,24,26,28,30,32,34,36,38,40,42,44,46,48,50,52,54,56,58,-1,60,62,64,66,68,70,72,74,76,78,80,82,84,86,88,90,92,94,96,98,100,102,104,106,108,110,112,114,116,-1,118,-1,-1,-1,-1,-1,-1,-1,-1,-1,-1,-1,-1,-1,-1,-1,-1,-1,-1,-1,-1,-1,-1,-1,-1,-1,-1,-1,-1,-1,-1,-1,-1,-1,-1,-1,-1,-1,-1,-1,-1,-1,-1,-1,-1,-1,-1,-1,-1,-1,-1,-1,-1,-1,-1,-1,-1,-1,-1],"split_conditions":[8.4E1,1.869E3,8.5E1,3.448E4,1E0,6.02E0,9.000046E-1,6E1,7.499976E-1,7.4E1,6.724E-1,2.1525E5,8.6E-1,3E2,3.2389E4,1.3312E4,1E0,1.98E0,1E0,6E1,1.008E5,6.25E4,1E0,1.93E0,1E0,5.1E3,1.425E5,9.85E0,9.85E0,-4.1069514E-1,1.25E2,4.9E1,3E0,9.36E0,4.31E2,1.2E1,2.85E4,1E0,6E0,1.3E1,6.1E1,7.8E1,7.500017E-1,3.6E1,6.1672E4,2.4E1,8.175E4,9E-1,1E0,8.75E-1,1.76E0,6.52E0,1.4E1,2.1E1,8.45E0,1E0,8.500133E-1,9E-1,8.315E-1,-2.624528E-1,1.52E2,-3.109409E-1,1.2991974E-1,3.633825E-1,-4.98164E-2,-3.404611E-1,2.2044133E-1,2.0197307E-1,-1.9636877E-1,5.3379174E-2,-2.9298183E-1,1.0829901E-1,-9.652433E-2,1.0786467E-1,-8.25229E-3,2.528905E-1,-4.3610072E-1,-1.06828466E-1,7.321536E-2,-2.3378389E-1,1.17569445E-2,3.1022823E-1,-1.5627813E-1,4.100164E-1,1.9914208E-1,2.3360503E-1,4.2779323E-2,-1.7528902E-1,-7.98394E-1,2.8777105E-1,9.460828E-2,2.3008306E-1,-5.9339094E-1,-3.24226E-1,1.8326332E-1,-2.949526E-1,-1.9897133E-1,-2.4469875E-1,7.5126225E-1,-2.4130793E-1,4.3392277E-1,1.4987712E0,2.3734835E-1,1.8740165E-1,-1.8864255E-1,2.9270858E-1,-7.4407846E-2,8.065659E-1,4.567395E-1,3.6201667E-2,-7.977847E-2,2.1561375E-1,4.7868425E-1,-3.6107647E-1,4.4412937E-2,-8.930572E-2,9.63236E-1,3.083364E-1,-1.7540543E-1],"split_indices":[0,2,0,6,5,1,3,0,3,0,3,8,3,0,2,6,7,1,7,0,8,8,7,1,5,8,8,1,1,0,0,0,0,1,2,0,8,4,0,0,0,0,3,0,2,5,8,3,5,3,1,1,2,2,1,4,3,3,3,0,0,0,0,0,0,0,0,0,0,0,0,0,0,0,0,0,0,0,0,0,0,0,0,0,0,0,0,0,0,0,0,0,0,0,0,0,0,0,0,0,0,0,0,0,0,0,0,0,0,0,0,0,0,0,0,0,0,0,0],"split_type":[0,0,0,0,0,0,0,0,0,0,0,0,0,0,0,0,0,0,0,0,0,0,0,0,0,0,0,0,0,0,0,0,0,0,0,0,0,0,0,0,0,0,0,0,0,0,0,0,0,0,0,0,0,0,0,0,0,0,0,0,0,0,0,0,0,0,0,0,0,0,0,0,0,0,0,0,0,0,0,0,0,0,0,0,0,0,0,0,0,0,0,0,0,0,0,0,0,0,0,0,0,0,0,0,0,0,0,0,0,0,0,0,0,0,0,0,0,0,0],"sum_hessian":[1.14158875E5,6.4762848E4,4.9396027E4,2.0228941E4,4.4533906E4,8.856563E3,4.053946E4,3.9138198E3,1.6315122E4,1.2868025E4,3.166588E4,7.4563228E3,1.4002405E3,3.9079598E4,1.4598636E3,2.6299458E3,1.283874E3,5.2711426E3,1.10439795E4,1.1873319E4,9.947066E2,2.5545828E4,6.1200527E3,6.9476753E3,5.0864722E2,6.556715E2,7.4456903E2,3.730091E4,1.778687E3,1.455167E3,4.6966176E0,5.1618005E2,2.1137656E3,1.0711571E3,2.1271701E2,1.7811138E3,3.4900288E3,1.0569593E4,4.743865E2,7.512014E3,4.3613047E3,4.7566568E2,5.190409E2,2.426437E4,1.2814598E3,5.96678E3,1.5327257E2,1.9909794E3,4.956696E3,2.9686618E2,2.1178102E2,5.1594753E0,6.50512E2,6.451202E2,9.944886E1,3.6562934E4,7.3797925E2,1.7509749E3,2.7712166E1,1.7689717E0,2.927646E0,4.8797156E2,2.8208471E1,5.376488E1,2.0600007E3,1.0482961E3,2.2860935E1,1.3937831E2,7.333871E1,1.8722319E2,1.5938905E3,1.6138671E3,1.8761619E3,6.289697E3,4.279896E3,3.1278324E1,4.431082E2,2.21633E3,5.295684E3,1.9233599E3,2.4379448E3,1.895401E2,2.861256E2,3.3740265E2,1.8163826E2,7.3846665E3,1.6879703E4,9.468431E2,3.3461676E2,5.617903E3,3.4887717E2,8.2190285E1,7.108229E1,1.9388373E3,5.2142113E1,1.9297701E3,3.0269258E3,2.92721E2,4.14517E0,9.566124E1,1.1611978E2,3.445153E0,1.7143226E0,3.8229534E1,6.1228253E2,6.3006363E1,5.821138E2,3.654264E1,6.2906223E1,2.0744432E4,1.5818501E4,2.0728076E2,5.306985E2,1.6342482E3,1.16726654E2,4.4170513E0,2.3295115E1,1.7990396E0,1.1286063E0],"tree_param":{"num_deleted":"0","num_feature":"9","num_nodes":"119","size_leaf_vector":"1"}},{"base_weights":[-5.2588447E-3,-1.3661475E-1,9.7939484E-2,-8.269517E-2,-5.7020265E-1,2.5342947E-1,-6.845394E-2,-2.1265218E-1,8.583786E-2,2.809949E-1,-6.794266E-1,3.5732496E-1,-1.15280345E-1,-3.6602798E-1,4.426996E-2,5.050353E-1,-2.5231E-1,1.3914569E-1,-2.2868311E-1,-1.7083623E-1,4.983147E-1,5.108331E-1,-6.903547E-1,2.0648089E-1,5.066157E-1,-6.6033137E-1,-3.0804332E-2,5.1950026E-1,-4.4930252E-1,6.861147E-2,-1.04684E0,-5.345153E-1,5.773133E-1,-2.0268296E-1,-5.955066E-1,1.5247992E-1,-1.1197972E0,4.219998E-1,-4.2837018E-1,-1.5681982E0,1.753815E-2,5.8123434E-1,-1.4413773E-1,9.3705225E-1,8.727932E-2,-8.152515E-1,-6.342335E-1,3.1565598E-1,-7.229434E-1,4.1180053E-1,7.608424E-1,-5.3714E-1,-9.5366234E-1,1.3876949E-1,-3.0324006E-1,7.448886E-1,-3.42958E-2,-8.300455E-1,-2.769085E-1,-7.151142E-2,2.5399393E-1,-2.222515E0,-1.002172E0,-4.0942883E-1,-1.3831357E-2,1.1271874E-1,2.9173037E-1,-6.898422E-2,-2.80408E-1,-1.0246283E-1,-2.773667E-1,1.7446397E-1,4.4847794E-2,1.49076E-1,-4.6087265E-1,2.271831E-1,-2.4384795E-1,-6.333431E-1,-1.1250025E-1,-8.615077E-1,-3.5298887E-1,7.640468E-2,-3.6021185E-1,9.4601005E-2,3.1283975E-1,-2.982191E-1,5.4480934E-1,4.0433738E-1,8.26182E-2,-6.165891E-1,2.9323936E-1,-3.3016515E-1,3.1970808E-1,-2.10066E-1,-3.1888157E-1,1.9606838E-1,7.7797644E-2,-2.0077515E-1,-8.91602E-1,9.7801305E-2,2.563929E-1,3.7671834E-1,-5.089152E-2,-2.3604429E-1,5.9981435E-3,-4.6653327E-1,-3.2095325E-1,7.5401284E-2,-2.050767E-1,2.94833E-1,-1.3645613E-1,1.3814345E-1,3.5404086E-1,-3.865007E-1,9.79508E-2,-5.3005517E-1,-3.0001986E-1,8.3194934E-2,-1.6810237E-1,-3.4851756E-2,9.5019245E-1,2.6159747E-2,2.4164651E-1,1.8082097E-1,-1.0666376E0,-4.02032E-1,-6.5072775E-2],"categories":[],"categories_nodes":[],"categories_segments":[],"categories_sizes":[],"default_left":[0,0,0,0,0,0,0,0,0,0,0,0,0,0,0,0,0,0,0,0,0,0,0,0,0,0,0,0,0,0,0,0,0,0,0,0,0,0,0,0,0,0,0,0,0,0,0,0,0,0,0,0,0,0,0,0,0,0,0,0,0,0,0,0,0,0,0,0,0,0,0,0,0,0,0,0,0,0,0,0,0,0,0,0,0,0,0,0,0,0,0,0,0,0,0,0,0,0,0,0,0,0,0,0,0,0,0,0,0,0,0,0,0,0,0,0,0,0,0,0,0,0,0,0,0,0,0],"id":8,"left_children":[1,3,5,7,9,11,13,15,17,19,21,23,25,27,29,31,33,35,37,39,41,43,45,47,49,51,53,55,57,59,61,63,65,67,69,71,73,75,77,79,81,83,85,87,89,91,93,95,97,99,101,103,105,107,109,111,113,115,117,119,121,123,125,-1,-1,-1,-1,-1,-1,-1,-1,-1,-1,-1,-1,-1,-1,-1,-1,-1,-1,-1,-1,-1,-1,-1,-1,-1,-1,-1,-1,-1,-1,-1,-1,-1,-1,-1,-1,-1,-1,-1,-1,-1,-1,-1,-1,-1,-1,-1,-1,-1,-1,-1,-1,-1,-1,-1,-1,-1,-1,-1,-1,-1,-1,-1,-1],"loss_changes":[1.4619772E3,1.109262E3,1.5626914E3,9.244196E2,4.882837E2,1.1961337E3,9.7876324E2,6.785167E2,3.0817764E2,5.891163E1,6.1210938E1,5.483511E2,3.1606528E2,5.9161365E2,5.6222687E2,9.4427704E1,3.844049E2,2.641465E2,3.4650714E2,5.15887E1,2.1713623E1,7.6837664E0,3.1280273E1,1.2302673E3,2.944436E2,3.226242E1,2.7478574E2,8.617485E1,4.8056274E2,5.378348E2,1.980481E1,2.002774E1,5.2072906E1,2.969688E2,9.4407776E1,1.7796252E2,8.830887E0,9.5039406E1,3.456547E2,5.546192E0,2.8134579E1,2.4462357E1,4.5362682E1,7.392826E-1,2.751377E1,2.465326E1,5.5862793E1,2.2917126E2,4.2201953E2,3.4170618E2,5.342294E2,1.912465E1,6.810562E0,1.1898133E2,9.0472336E1,2.68656E1,5.2898643E1,8.843213E1,3.510133E2,4.5109268E2,5.884437E2,2.0542984E1,7.683716E-1,0E0,0E0,0E0,0E0,0E0,0E0,0E0,0E0,0E0,0E0,0E0,0E0,0E0,0E0,0E0,0E0,0E0,0E0,0E0,0E0,0E0,0E0,0E0,0E0,0E0,0E0,0E0,0E0,0E0,0E0,0E0,0E0,0E0,0E0,0E0,0E0,0E0,0E0,0E0,0E0,0E0,0E0,0E0,0E0,0E0,0E0,0E0,0E0,0E0,0E0,0E0,0E0,0E0,0E0,0E0,0E0,0E0,0E0,0E0,0E0,0E0,0E0,0E0,0E0],"parents":[2147483647,0,0,1,1,2,2,3,3,4,4,5,5,6,6,7,7,8,8,9,9,10,10,11,11,12,12,13,13,14,14,15,15,16,16,17,17,18,18,19,19,20,20,21,21,22,22,23,23,24,24,25,25,26,26,27,27,28,28,29,29,30,30,31,31,32,32,33,33,34,34,35,35,36,36,37,37,38,38,39,39,40,40,41,41,42,42,43,43,44,44,45,45,46,46,47,47,48,48,49,49,50,50,51,51,52,52,53,53,54,54,55,55,56,56,57,57,58,58,59,59,60,60,61,61,62,62],"right_children":[2,4,6,8,10,12,14,16,18,20,22,24,26,28,30,32,34,36,38,40,42,44,46,48,50,52,54,56,58,60,62,64,66,68,70,72,74,76,78,80,82,84,86,88,90,92,94,96,98,100,102,104,106,108,110,112,114,116,118,120,122,124,126,-1,-1,-1,-1,-1,-1,-1,-1,-1,-1,-1,-1,-1,-1,-1,-1,-1,-1,-1,-1,-1,-1,-1,-1,-1,-1,-1,-1,-1,-1,-1,-1,-1,-1,-1,-1,-1,-1,-1,-1,-1,-1,-1,-1,-1,-1,-1,-1,-1,-1,-1,-1,-1,-1,-1,-1,-1,-1,-1,-1,-1,-1,-1,-1],"split_conditions":[4.24E0,1E0,5.27E0,1.76E0,2.92E0,1E0,5.1E4,1.2E1,6.1672E4,2.2853E4,3E0,5.24E0,4.49E0,1.2E1,9.000046E-1,1.5E-1,1.2E1,8.500133E-1,3.6E1,6E3,8.3E1,9.36E3,9E4,5.07E0,4.7508E4,1.8E2,5.19E0,8.000013E-1,5.859398E-1,6.27E0,4.9E1,1E0,3.615E3,2.4E2,5.35E4,2.4E1,3E0,5.1E4,3.7E1,8.1E1,1.8525E5,3.6E1,1.43E0,4E5,3.2389E4,4.16E0,1.8E2,6E1,1E0,7.499976E-1,7.8E1,1.32E2,1.92E2,1E0,6E0,2.504E3,8.6E-1,1.3E1,4.8E1,1.5E2,8.6E-1,6.25E4,6.1672E4,-4.0942883E-1,-1.3831357E-2,1.1271874E-1,2.9173037E-1,-6.898422E-2,-2.80408E-1,-1.0246283E-1,-2.773667E-1,1.7446397E-1,4.4847794E-2,1.49076E-1,-4.6087265E-1,2.271831E-1,-2.4384795E-1,-6.333431E-1,-1.1250025E-1,-8.615077E-1,-3.5298887E-1,7.640468E-2,-3.6021185E-1,9.4601005E-2,3.1283975E-1,-2.982191E-1,5.4480934E-1,4.0433738E-1,8.26182E-2,-6.165891E-1,2.9323936E-1,-3.3016515E-1,3.1970808E-1,-2.10066E-1,-3.1888157E-1,1.9606838E-1,7.7797644E-2,-2.0077515E-1,-8.91602E-1,9.7801305E-2,2.563929E-1,3.7671834E-1,-5.089152E-2,-2.3604429E-1,5.9981435E-3,-4.6653327E-1,-3.2095325E-1,7.5401284E-2,-2.050767E-1,2.94833E-1,-1.3645613E-1,1.3814345E-1,3.5404086E-1,-3.865007E-1,9.79508E-2,-5.3005517E-1,-3.0001986E-1,8.3194934E-2,-1.6810237E-1,-3.4851756E-2,9.5019245E-1,2.6159747E-2,2.4164651E-1,1.8082097E-1,-1.0666376E0,-4.02032E-1,-6.5072775E-2],"split_indices":[1,4,1,1,1,4,8,0,2,2,0,1,1,0,3,1,5,3,0,8,0,2,8,1,2,0,1,3,3,1,0,7,2,0,6,0,0,8,0,0,8,0,1,6,2,1,0,0,7,3,0,0,0,7,0,2,3,0,0,5,3,6,2,0,0,0,0,0,0,0,0,0,0,0,0,0,0,0,0,0,0,0,0,0,0,0,0,0,0,0,0,0,0,0,0,0,0,0,0,0,0,0,0,0,0,0,0,0,0,0,0,0,0,0,0,0,0,0,0,0,0,0,0,0,0,0,0],"split_type":[0,0,0,0,0,0,0,0,0,0,0,0,0,0,0,0,0,0,0,0,0,0,0,0,0,0,0,0,0,0,0,0,0,0,0,0,0,0,0,0,0,0,0,0,0,0,0,0,0,0,0,0,0,0,0,0,0,0,0,0,0,0,0,0,0,0,0,0,0,0,0,0,0,0,0,0,0,0,0,0,0,0,0,0,0,0,0,0,0,0,0,0,0,0,0,0,0,0,0,0,0,0,0,0,0,0,0,0,0,0,0,0,0,0,0,0,0,0,0,0,0,0,0,0,0,0,0],"sum_hessian":[1.07845555E5,4.7449215E4,6.039634E4,4.220333E4,5.245887E3,3.1220559E4,2.9175783E4,2.382849E4,1.837484E4,5.962307E2,4.6496562E3,2.4357217E4,6.863343E3,8.0144233E3,2.116136E4,1.2465327E3,2.2581957E4,1.5712808E4,2.662032E3,1.9377649E2,4.0245425E2,4.146911E1,4.608187E3,1.2117949E4,1.2239267E4,9.1916003E2,5.9441826E3,6.879883E2,7.326435E3,2.0701408E4,4.599523E2,8.020338E1,1.1663293E3,1.9731863E4,2.8500945E3,1.5549867E4,1.6294029E2,6.2458545E2,2.0374465E3,2.1278996E1,1.724975E2,3.566172E2,4.5837048E1,1.9460964E1,2.2008144E1,1.4202935E3,3.1878938E3,1.0845321E4,1.2726278E3,8.918358E3,3.320908E3,6.5129535E2,2.678647E2,3.664344E3,2.2798384E3,4.88489E2,1.9949925E2,2.281023E3,5.045412E3,1.1790606E4,8.910801E3,1.326632E1,4.4668597E2,3.948393E1,4.0719444E1,3.981068E2,7.6822253E2,1.8606156E4,1.1257068E3,6.398057E2,2.2102886E3,1.9343505E3,1.3615517E4,3.014096E0,1.5992621E2,5.4795703E2,7.662841E1,2.2799641E2,1.8094501E3,9.168176E0,1.211082E1,1.4641544E2,2.6082056E1,1.3289423E2,2.2372298E2,3.347892E1,1.2358129E1,1.69784E1,2.482564E0,5.4612365E0,1.6546907E1,1.4123818E3,7.911601E0,1.9148317E3,1.2730623E3,4.441678E3,6.4036436E3,1.1121003E3,1.6052756E2,5.1575796E3,3.760779E3,2.7586785E3,5.6222943E2,5.941557E2,5.713962E1,1.0576243E2,1.6210226E2,3.4057632E3,2.585808E2,7.884096E1,2.2009976E3,1.28698E2,3.5979102E2,4.4851227E1,1.5464803E2,3.1296445E2,1.9680585E3,1.1510154E3,3.8943967E3,1.1717747E4,7.285992E1,5.792841E3,3.1179597E3,1.883942E0,1.1382378E1,4.4475082E2,1.9351443E0],"tree_param":{"num_deleted":"0","num_feature":"9","num_nodes":"127","size_leaf_vector":"1"}},{"base_weights":[-2.6281273E-3,1.2018132E-1,-6.78437E-2,4.3252945E-2,5.359337E-1,-4.269239E-1,-2.0859119E-2,1.3088854E-1,-7.07449E-1,6.125379E-1,2.2270763E-1,-4.8322186E-1,1.4321668E-1,3.480167E-1,-7.633061E-2,3.204316E-3,6.3465583E-1,-5.402991E-1,-1.1090769E0,6.851196E-1,3.611641E-1,9.165818E-1,1.6985972E-1,-5.6558573E-1,-2.4060303E-1,-2.4808976E-1,1.3568697E0,5.8609265E-1,1.6104212E-1,-1.8606752E-1,6.69379E-2,1.4953294E-1,-6.704302E-1,6.863788E-1,4.1619632E-1,-7.027608E-1,1.8180427E-1,-2.621896E-1,-1.328182E0,5.3488964E-1,7.50047E-1,5.0861096E-1,1.959399E-1,9.768108E-1,-4.1834292E-1,-3.1778413E-1,2.9061073E-1,-7.0384085E-1,-2.5929105E-1,-5.258847E-1,1.4447032E-1,-6.704428E-1,7.71704E-2,1.5237684E0,-5.3972703E-1,6.5038687E-1,-7.61129E-1,-2.3544354E-2,5.6329954E-1,3.3757883E-1,-2.2140558E-1,9.6614845E-2,-9.965607E-1,8.017784E-3,2.2664766E-1,-3.4917343E-1,-5.4556675E-2,2.8758258E-1,1.230629E-1,1.0156913E-1,2.4771003E-1,-3.3952153E-1,-3.5038892E-2,-5.751403E-2,2.798768E-1,-5.98061E-3,-3.5861143E-1,-2.7152333E-1,-5.738283E-1,2.3640354E-1,4.731276E-2,1.0438515E-1,3.0925936E-1,2.1888793E-1,8.566152E-2,1.9053517E-2,2.5592706E-1,4.0344658E-1,-5.432671E-2,2.4790268E-1,-5.711151E-1,1.4247844E-1,-2.322634E-1,-3.1554207E-1,-8.743519E-2,-5.0146814E-2,-4.3140465E-1,-2.5667426E-1,4.0004563E-2,-1.15991175E-1,3.3199462E-1,1.0030516E-1,-3.1987637E-1,3.5457885E-1,-2.0996587E-1,9.8919964E-1,5.17943E-1,6.4429635E-1,-4.1731712E-1,-3.1944052E-3,2.8175077E-1,-7.369644E-1,-1.5044476E-1,1.2451905E-1,-4.0789127E-1,2.9644108E-1,-4.1881466E-1,3.225334E-1,-8.142808E-2,-7.091195E-2,-1.9425088E-1,2.1526644E-2,3.641089E-1,-3.9969072E-1,8.0376655E-2],"categories":[],"categories_nodes":[],"categories_segments":[],"categories_sizes":[],"default_left":[0,0,0,0,0,0,0,0,0,0,0,0,0,0,0,0,0,0,0,0,0,0,0,0,0,0,0,0,0,0,0,0,0,0,0,0,0,0,0,0,0,0,0,0,0,0,0,0,0,0,0,0,0,0,0,0,0,0,0,0,0,0,0,0,0,0,0,0,0,0,0,0,0,0,0,0,0,0,0,0,0,0,0,0,0,0,0,0,0,0,0,0,0,0,0,0,0,0,0,0,0,0,0,0,0,0,0,0,0,0,0,0,0,0,0,0,0,0,0,0,0,0,0,0,0],"id":9,"left_children":[1,3,5,7,9,11,13,15,17,19,21,23,25,27,29,31,33,35,37,39,41,43,45,47,49,51,53,55,57,59,61,63,65,67,69,71,73,75,77,79,81,83,85,87,-1,89,91,93,95,97,99,101,103,105,107,109,111,113,115,117,119,121,123,-1,-1,-1,-1,-1,-1,-1,-1,-1,-1,-1,-1,-1,-1,-1,-1,-1,-1,-1,-1,-1,-1,-1,-1,-1,-1,-1,-1,-1,-1,-1,-1,-1,-1,-1,-1,-1,-1,-1,-1,-1,-1,-1,-1,-1,-1,-1,-1,-1,-1,-1,-1,-1,-1,-1,-1,-1,-1,-1,-1,-1,-1],"loss_changes":[8.310094E2,1.1509661E3,1.1433486E3,1.998238E3,1.345542E2,2.5182959E2,1.2263628E3,1.7494468E3,2.1195544E2,8.1859375E1,4.029423E1,1.4234937E2,3.3607748E2,3.48563E2,8.191041E2,2.1392375E3,6.15708E1,2.6373682E2,1.7209387E2,3.333911E1,2.4540817E1,1.1252365E1,6.091813E1,2.2520886E2,1.9924356E2,7.370162E1,5.6247894E1,2.99443E2,3.2606595E2,5.4607324E2,7.134228E2,9.6290015E2,4.1859924E2,5.43833E1,3.4548096E1,1.646059E2,7.002381E1,3.0381653E1,4.9128174E1,2.4718079E1,2.7153442E1,5.8522034E0,3.1678799E1,2.9857025E0,0E0,2.1580048E2,4.771344E1,1.510144E2,1.818327E2,7.5614685E1,2.3064835E2,2.8177681E1,1.49278E2,2.8160065E1,2.0068985E1,1.1694678E2,6.4336395E1,1.0052598E3,3.970321E2,4.7363324E2,3.220598E2,7.6554114E2,2.3606567E0,0E0,0E0,0E0,0E0,0E0,0E0,0E0,0E0,0E0,0E0,0E0,0E0,0E0,0E0,0E0,0E0,0E0,0E0,0E0,0E0,0E0,0E0,0E0,0E0,0E0,0E0,0E0,0E0,0E0,0E0,0E0,0E0,0E0,0E0,0E0,0E0,0E0,0E0,0E0,0E0,0E0,0E0,0E0,0E0,0E0,0E0,0E0,0E0,0E0,0E0,0E0,0E0,0E0,0E0,0E0,0E0,0E0,0E0,0E0,0E0,0E0,0E0],"parents":[2147483647,0,0,1,1,2,2,3,3,4,4,5,5,6,6,7,7,8,8,9,9,10,10,11,11,12,12,13,13,14,14,15,15,16,16,17,17,18,18,19,19,20,20,21,21,22,22,23,23,24,24,25,25,26,26,27,27,28,28,29,29,30,30,31,31,32,32,33,33,34,34,35,35,36,36,37,37,38,38,39,39,40,40,41,41,42,42,43,43,45,45,46,46,47,47,48,48,49,49,50,50,51,51,52,52,53,53,54,54,55,55,56,56,57,57,58,58,59,59,60,60,61,61,62,62],"right_children":[2,4,6,8,10,12,14,16,18,20,22,24,26,28,30,32,34,36,38,40,42,44,46,48,50,52,54,56,58,60,62,64,66,68,70,72,74,76,78,80,82,84,86,88,-1,90,92,94,96,98,100,102,104,106,108,110,112,114,116,118,120,122,124,-1,-1,-1,-1,-1,-1,-1,-1,-1,-1,-1,-1,-1,-1,-1,-1,-1,-1,-1,-1,-1,-1,-1,-1,-1,-1,-1,-1,-1,-1,-1,-1,-1,-1,-1,-1,-1,-1,-1,-1,-1,-1,-1,-1,-1,-1,-1,-1,-1,-1,-1,-1,-1,-1,-1,-1,-1,-1,-1,-1,-1,-1],"split_conditions":[6E1,4.9E1,6.1E1,4.8E1,5.8E1,7.9723E4,7.2E1,3.7E1,7.9723E4,1E0,2.1E-1,8.4E-1,1E0,2.55E4,1.54E5,3.6E1,1E0,1E0,1E0,4.739E3,5.4E1,2.4E1,1.98E0,1E0,3.272E3,4.94E0,5.27E0,5.27E0,6.7E1,1.3312E4,9.000046E-1,2.5E1,5.1724E-1,2.4E5,4.3E1,1.15E5,3.2389E4,1E0,5.1E3,2.008E3,9E3,2.07E5,6.01E0,3.71E5,-4.1834292E-1,1E0,8.99995E-1,1.152E5,6.1672E4,6.27E0,1E0,1.24E0,5.27E0,1.22E0,5.1E3,4.1E2,5.1724E-1,6.6E1,1E0,6.961E3,1E0,8.500133E-1,1.0586E4,8.017784E-3,2.2664766E-1,-3.4917343E-1,-5.4556675E-2,2.8758258E-1,1.230629E-1,1.0156913E-1,2.4771003E-1,-3.3952153E-1,-3.5038892E-2,-5.751403E-2,2.798768E-1,-5.98061E-3,-3.5861143E-1,-2.7152333E-1,-5.738283E-1,2.3640354E-1,4.731276E-2,1.0438515E-1,3.0925936E-1,2.1888793E-1,8.566152E-2,1.9053517E-2,2.5592706E-1,4.0344658E-1,-5.432671E-2,2.4790268E-1,-5.711151E-1,1.4247844E-1,-2.322634E-1,-3.1554207E-1,-8.743519E-2,-5.0146814E-2,-4.3140465E-1,-2.5667426E-1,4.0004563E-2,-1.15991175E-1,3.3199462E-1,1.0030516E-1,-3.1987637E-1,3.5457885E-1,-2.0996587E-1,9.8919964E-1,5.17943E-1,6.4429635E-1,-4.1731712E-1,-3.1944052E-3,2.8175077E-1,-7.369644E-1,-1.5044476E-1,1.2451905E-1,-4.0789127E-1,2.9644108E-1,-4.1881466E-1,3.225334E-1,-8.142808E-2,-7.091195E-2,-1.9425088E-1,2.1526644E-2,3.641089E-1,-3.9969072E-1,8.0376655E-2],"split_indices":[0,0,0,0,0,2,0,0,2,4,1,3,7,8,8,0,4,7,7,2,0,5,1,7,2,1,1,1,0,6,3,0,3,6,0,6,2,4,8,2,6,8,1,6,0,7,3,8,2,1,5,1,1,1,8,2,3,0,7,2,7,3,2,0,0,0,0,0,0,0,0,0,0,0,0,0,0,0,0,0,0,0,0,0,0,0,0,0,0,0,0,0,0,0,0,0,0,0,0,0,0,0,0,0,0,0,0,0,0,0,0,0,0,0,0,0,0,0,0,0,0,0,0,0,0],"split_type":[0,0,0,0,0,0,0,0,0,0,0,0,0,0,0,0,0,0,0,0,0,0,0,0,0,0,0,0,0,0,0,0,0,0,0,0,0,0,0,0,0,0,0,0,0,0,0,0,0,0,0,0,0,0,0,0,0,0,0,0,0,0,0,0,0,0,0,0,0,0,0,0,0,0,0,0,0,0,0,0,0,0,0,0,0,0,0,0,0,0,0,0,0,0,0,0,0,0,0,0,0,0,0,0,0,0,0,0,0,0,0,0,0,0,0,0,0,0,0,0,0,0,0,0,0],"sum_hessian":[1.0375427E5,3.5986082E4,6.776819E4,3.036899E4,5.6170923E3,7.8393896E3,5.99288E4,2.7195848E4,3.1731428E3,4.5117607E3,1.1053314E3,7.1351416E3,7.042477E2,7.832629E3,5.209617E4,2.169825E4,5.4975977E3,2.2439458E3,9.291971E2,3.4982302E3,1.01353046E3,7.591442E1,1.029417E3,5.3248184E3,1.8103232E3,5.3374774E2,1.7049997E2,3.4436008E3,4.389028E3,2.9499982E4,2.259619E4,1.782731E4,3.8709385E3,4.44169E3,1.0559075E3,1.83186E3,4.1208566E2,1.9189102E2,7.37306E2,1.0612264E3,2.437004E3,5.333816E2,4.801489E2,7.46285E1,1.2859223E0,2.0366556E2,8.2575146E2,3.6670098E3,1.6578086E3,1.0394874E3,7.7083575E2,2.3129138E2,3.0245633E2,1.5707101E2,1.34289465E1,3.287733E3,1.5586786E2,3.0097893E3,1.3792388E3,1.863858E3,2.7636123E4,2.198453E4,6.116602E2,1.360546E4,4.2218516E3,2.80575E3,1.0651886E3,4.088224E3,3.5346606E2,5.8942126E2,4.664862E2,1.4797905E3,3.5206955E2,2.5390413E2,1.5818153E2,1.3954825E2,5.234277E1,1.0586848E2,6.3143756E2,9.345065E2,1.2671996E2,1.11026436E2,2.3259775E3,4.7003445E2,6.334713E1,3.6156073E2,1.1858817E2,7.273622E1,1.8922799E0,1.10888916E2,9.2776634E1,7.690436E2,5.6707897E1,3.1192744E3,5.477356E2,1.426856E3,2.3095264E2,8.7714996E2,1.623375E2,4.7252527E2,2.9831052E2,2.8226778E1,2.030646E2,1.2862451E2,1.7383183E2,2.6709099E1,1.3036192E2,1.7136209E0,1.1715326E1,2.4930695E2,3.038426E3,3.893954E1,1.1692832E2,2.2536553E3,7.561341E2,1.2430668E3,1.36172E2,9.982087E2,8.6564935E2,2.368415E4,3.9519736E3,2.0887957E4,1.0965708E3,6.1063196E2,1.0283157E0],"tree_param":{"num_deleted":"0","num_feature":"9","num_nodes":"125","size_leaf_vector":"1"}},{"base_weights":[5.965202E-4,5.109912E-1,-1.2274954E-2,6.569873E-1,8.2031466E-2,-1.02721095E-1,5.9144475E-2,4.7266507E-1,8.491667E-1,4.963857E-1,-1.7340304E-1,-6.5586485E-2,-4.3221343E-1,1.6027586E-1,-4.3064773E-2,2.971429E-1,9.519441E-1,8.549696E-1,-5.645113E-1,5.554257E-1,-1.2613151E0,-3.469518E-2,-7.324506E-1,-1.5378158E-1,4.8999093E-2,1.30415E-1,-5.032405E-1,6.655429E-2,3.480559E-1,-8.919448E-3,-6.0756093E-1,6.4475834E-1,3.382408E-2,9.774908E-1,-4.1055664E-1,7.8101873E-1,9.5667607E-1,-4.104859E-1,8.165645E-2,8.634989E-1,1.9214705E-1,1.9230342E-1,-6.8491673E-1,9.6658744E-2,-7.698253E-1,-1.2698556E0,-7.221276E-2,-1.0848093E-1,-3.743947E-1,6.4075734E-3,3.5815102E-1,-2.1150915E-1,3.3243334E-1,-4.3758667E-1,-6.584163E-1,-7.0767716E-2,1.6628864E-1,2.6254508E-1,6.2839377E-1,-1.2237404E-1,1.23166226E-1,-1.5651385E-1,-9.220743E-1,2.0729318E-1,3.894613E-1,-1.6451688E-1,1.4487042E-1,3.9387506E-1,-1.5867865E-2,2.463512E-1,3.530327E-1,3.9436874E-1,8.0190085E-2,3.7699583E-1,1.187815E-1,1.2854812E-1,-1.5180945E-1,2.386565E-1,-3.7266564E-2,-4.0796685E-1,2.4731949E-1,-6.294169E-1,-2.041723E-1,-2.7056772E-1,2.806804E-1,-3.4581464E-2,-2.1147561E-1,-6.4145684E-2,-1.8811038E-1,2.0426018E-2,-2.8215536E-1,5.410322E-1,4.3022133E-2,6.618466E-2,-3.4647107E-1,2.1271689E-1,-5.403874E-2,-1.9199416E-1,2.084736E-1,-4.1175458E-1,-1.8109088E-1,-4.5090425E-3,-1.1529696E-1,7.965009E-2,-1.1809633E-1,8.3757706E-2,3.0601063E-1,3.1754896E-1,7.5892173E-3,-9.433198E-3,-1.9664082E-1,2.257E-1,2.2483442E-2,5.650847E-1,-9.833105E-2,-2.649319E-1,-4.6810475E-1],"categories":[],"categories_nodes":[],"categories_segments":[],"categories_sizes":[],"default_left":[0,0,0,0,0,0,0,0,0,0,0,0,0,0,0,0,0,0,0,0,0,0,0,0,0,0,0,0,0,0,0,0,0,0,0,0,0,0,0,0,0,0,0,0,0,0,0,0,0,0,0,0,0,0,0,0,0,0,0,0,0,0,0,0,0,0,0,0,0,0,0,0,0,0,0,0,0,0,0,0,0,0,0,0,0,0,0,0,0,0,0,0,0,0,0,0,0,0,0,0,0,0,0,0,0,0,0,0,0,0,0,0,0,0,0,0,0],"id":10,"left_children":[1,3,5,7,9,11,13,15,17,19,21,23,25,27,29,31,33,35,37,39,41,43,45,47,49,51,53,55,57,59,61,63,65,67,-1,69,71,-1,-1,73,75,-1,-1,77,79,81,83,85,87,89,91,93,95,97,99,101,103,105,107,109,111,113,115,-1,-1,-1,-1,-1,-1,-1,-1,-1,-1,-1,-1,-1,-1,-1,-1,-1,-1,-1,-1,-1,-1,-1,-1,-1,-1,-1,-1,-1,-1,-1,-1,-1,-1,-1,-1,-1,-1,-1,-1,-1,-1,-1,-1,-1,-1,-1,-1,-1,-1,-1,-1,-1,-1],"loss_changes":[6.453358E2,1.5121863E2,6.189423E2,6.3046326E1,6.535446E1,5.172272E2,5.534369E2,7.72119E1,8.183716E0,2.5828003E1,2.9607632E1,3.840113E2,1.7123865E2,4.735877E2,5.132769E2,6.21658E1,1.4486084E1,5.102661E0,2.1230974E0,2.5310783E1,8.136447E0,2.9941992E1,2.6758629E1,2.1450479E2,2.1761868E2,3.34027E1,3.81604E1,2.459284E2,2.1444922E2,3.7636612E2,2.1518073E2,1.1176041E1,5.712519E1,1.870163E0,0E0,7.6134644E0,7.574524E0,0E0,0E0,4.9630356E0,8.201067E0,0E0,0E0,2.5123829E1,1.7576206E1,8.019913E0,1.7873255E1,1.6481972E2,7.4897644E1,4.6188562E2,4.9841788E2,4.4724575E1,2.8429272E1,1.0935339E2,8.502197E1,9.775008E1,1.5775275E2,1.8312946E2,2.110127E2,4.9278207E2,3.4266937E2,8.848784E1,5.611255E1,0E0,0E0,0E0,0E0,0E0,0E0,0E0,0E0,0E0,0E0,0E0,0E0,0E0,0E0,0E0,0E0,0E0,0E0,0E0,0E0,0E0,0E0,0E0,0E0,0E0,0E0,0E0,0E0,0E0,0E0,0E0,0E0,0E0,0E0,0E0,0E0,0E0,0E0,0E0,0E0,0E0,0E0,0E0,0E0,0E0,0E0,0E0,0E0,0E0,0E0,0E0,0E0,0E0,0E0],"parents":[2147483647,0,0,1,1,2,2,3,3,4,4,5,5,6,6,7,7,8,8,9,9,10,10,11,11,12,12,13,13,14,14,15,15,16,16,17,17,18,18,19,19,20,20,21,21,22,22,23,23,24,24,25,25,26,26,27,27,28,28,29,29,30,30,31,31,32,32,33,33,35,35,36,36,39,39,40,40,43,43,44,44,45,45,46,46,47,47,48,48,49,49,50,50,51,51,52,52,53,53,54,54,55,55,56,56,57,57,58,58,59,59,60,60,61,61,62,62],"right_children":[2,4,6,8,10,12,14,16,18,20,22,24,26,28,30,32,34,36,38,40,42,44,46,48,50,52,54,56,58,60,62,64,66,68,-1,70,72,-1,-1,74,76,-1,-1,78,80,82,84,86,88,90,92,94,96,98,100,102,104,106,108,110,112,114,116,-1,-1,-1,-1,-1,-1,-1,-1,-1,-1,-1,-1,-1,-1,-1,-1,-1,-1,-1,-1,-1,-1,-1,-1,-1,-1,-1,-1,-1,-1,-1,-1,-1,-1,-1,-1,-1,-1,-1,-1,-1,-1,-1,-1,-1,-1,-1,-1,-1,-1,-1,-1,-1,-1],"split_conditions":[6E0,8.46E-1,4.24E0,1E0,3E0,1E0,5.27E0,7.89E-1,6.4E1,9.000046E-1,1.3E5,1.76E0,2.92E0,5.25E0,1E0,3E0,5.7E5,4.59E0,2.56E5,4.016E3,1.8E-1,7.31E0,5.98E0,9E0,1.32E2,2.2853E4,1.8E2,1E0,4.7508E4,6.02E0,5E4,4.7508E4,2.804E3,5E0,-4.1055664E-1,5.2205E4,5.1724E-1,-4.104859E-1,8.165645E-2,1.79E5,1.3E5,1.9230342E-1,-6.8491673E-1,2.43E2,9.85E0,4.55E5,8.500004E-1,2.4E2,7.9907E4,1.2E2,1.8E2,1.769E3,2.5776E4,1.52E2,1.83E2,1.8E2,2.1E1,1.32E2,7.8E1,8.014586E-1,5.6E1,1E4,3E1,2.0729318E-1,3.894613E-1,-1.6451688E-1,1.4487042E-1,3.9387506E-1,-1.5867865E-2,2.463512E-1,3.530327E-1,3.9436874E-1,8.0190085E-2,3.7699583E-1,1.187815E-1,1.2854812E-1,-1.5180945E-1,2.386565E-1,-3.7266564E-2,-4.0796685E-1,2.4731949E-1,-6.294169E-1,-2.041723E-1,-2.7056772E-1,2.806804E-1,-3.4581464E-2,-2.1147561E-1,-6.4145684E-2,-1.8811038E-1,2.0426018E-2,-2.8215536E-1,5.410322E-1,4.3022133E-2,6.618466E-2,-3.4647107E-1,2.1271689E-1,-5.403874E-2,-1.9199416E-1,2.084736E-1,-4.1175458E-1,-1.8109088E-1,-4.5090425E-3,-1.1529696E-1,7.965009E-2,-1.1809633E-1,8.3757706E-2,3.0601063E-1,3.1754896E-1,7.5892173E-3,-9.433198E-3,-1.9664082E-1,2.257E-1,2.2483442E-2,5.650847E-1,-9.833105E-2,-2.649319E-1,-4.6810475E-1],"split_indices":[0,3,1,7,0,4,1,3,5,3,8,1,1,1,7,0,6,1,6,2,1,1,1,5,0,2,0,5,2,1,6,2,2,5,0,6,3,0,0,6,8,0,0,2,1,6,3,0,6,0,0,2,2,0,0,0,5,0,0,3,2,6,0,0,0,0,0,0,0,0,0,0,0,0,0,0,0,0,0,0,0,0,0,0,0,0,0,0,0,0,0,0,0,0,0,0,0,0,0,0,0,0,0,0,0,0,0,0,0,0,0,0,0,0,0,0,0],"split_type":[0,0,0,0,0,0,0,0,0,0,0,0,0,0,0,0,0,0,0,0,0,0,0,0,0,0,0,0,0,0,0,0,0,0,0,0,0,0,0,0,0,0,0,0,0,0,0,0,0,0,0,0,0,0,0,0,0,0,0,0,0,0,0,0,0,0,0,0,0,0,0,0,0,0,0,0,0,0,0,0,0,0,0,0,0,0,0,0,0,0,0,0,0,0,0,0,0,0,0,0,0,0,0,0,0,0,0,0,0,0,0,0,0,0,0,0,0],"sum_hessian":[9.822772E4,2.414334E3,9.581338E4,1.8004791E3,6.13855E2,4.2275047E4,5.3538336E4,9.225581E2,8.77921E2,2.3338379E2,3.8047116E2,3.799528E4,4.2797656E3,2.6910494E4,2.6627844E4,6.7763403E2,2.4492406E2,8.751192E2,2.8018105E0,2.271229E2,6.2608986E0,3.0653857E2,7.393257E1,2.1469664E4,1.6525617E4,4.7953598E2,3.8002295E3,1.7952871E4,8.957623E3,2.5110959E4,1.5168838E3,2.908184E2,3.8681567E2,2.4280052E2,2.1235282E0,5.167488E2,3.5837048E2,1.3317236E0,1.4700869E0,1.2140943E2,1.0571346E2,1.2603248E0,5.000574E0,2.6154285E2,4.4995758E1,3.9739597E1,3.4192974E1,1.7814602E4,3.6550623E3,1.4526377E4,1.9992415E3,1.780631E2,3.014729E2,2.6757686E3,1.124461E3,7.553376E3,1.0399495E4,6.866902E3,2.0907217E3,1.3508242E4,1.1602717E4,6.2440826E2,8.924756E2,2.1374309E2,7.707531E1,1.6399614E2,2.2281953E2,2.4115807E2,1.6424518E0,2.0216235E2,3.145864E2,3.4444177E2,1.3928695E1,1.0538849E2,1.6020947E1,8.693739E1,1.8776072E1,7.079332E1,1.9074951E2,3.8576176E1,6.419582E0,2.685608E1,1.2883518E1,1.9343306E1,1.4849668E1,1.6929566E4,8.8503485E2,1.1324655E3,2.5225967E3,1.3670554E4,8.558224E2,4.0063232E2,1.5986091E3,1.1394556E2,6.411754E1,2.111583E2,9.0314606E1,2.5634082E3,1.12360214E2,3.9822818E2,7.2623285E2,5.9325083E3,1.6208679E3,9.709806E3,6.8968933E2,6.2125884E3,6.5431354E2,1.6437751E3,4.4694647E2,1.0658556E4,2.849687E3,1.5272296E3,1.0075487E4,3.202906E1,5.9237915E2,4.3966977E2,4.528058E2],"tree_param":{"num_deleted":"0","num_feature":"9","num_nodes":"117","size_leaf_vector":"1"}},{"base_weights":[1.1069702E-4,8.770121E-3,-6.731775E-1,6.298068E-1,3.2887666E-3,-8.5622734E-1,-1.8014912E-2,7.1987724E-1,3.5694373E-1,-2.1780391E-1,1.9353643E-2,-4.0090248E-1,-9.198124E-1,2.7202048E0,-1.7363596E-1,7.3254776E-1,-5.794963E-1,4.0277055E-1,-9.186513E-1,1.8454838E-1,-8.038803E-1,5.756585E-1,-1.059322E-2,-5.764568E-1,2.7392716E0,-9.4977105E-1,-5.420628E-1,3.1324477E0,-1.7119962E-1,-9.563434E-1,1.22297585E-1,7.4236363E-1,-5.592286E-1,-1.3753005E0,2.3082654E-1,7.650493E-1,1.9037704E-1,1.7195934E-1,-5.069467E-1,4.9732697E-1,-1.0639799E-1,-5.894552E-1,-9.94793E-1,6.6804177E-1,1.22803316E-1,-1.2766044E0,1.1370426E-2,-6.91077E-1,7.863737E-1,3.5089915E0,-1.5827599E-1,1.3781108E-1,-9.594966E-1,-6.540115E-1,7.569789E-1,-1.5327094E-1,3.5460446E0,-4.049666E-1,-4.723217E-1,1.5626309E0,-1.8594785E-1,2.800863E-1,3.8984314E-1,1.6574906E-1,-5.7487833E-1,-6.7398494E-1,-6.709272E-2,3.5471293E-1,6.2834255E-2,-8.7494105E-2,1.2234225E-1,2.1050485E-2,2.68091E-1,-1.3302374E-1,5.0152857E-2,-1.00038014E-1,-3.4163478E-1,1.8565653E-1,-4.1459647E-1,6.4768985E-2,2.8316998E-1,-5.175482E-1,9.807115E-2,-5.9169E-1,-2.805266E-1,1.70765E-1,-2.9256814E-3,1.4631632E-1,-3.268312E-1,-2.710311E-1,7.650009E-1,1.6908779E0,2.3940392E-1,-2.8602782E-1,5.6439185E-1,-3.9099395E-1,-2.560187E-1,-7.525036E-2,-3.645062E-1,1.7105507E0,4.2712566E-1,-3.1238207E-1,1.3288604E-1,1.9536975E-1,1.193795E0,-2.9718384E-1,3.1709433E-2],"categories":[],"categories_nodes":[],"categories_segments":[],"categories_sizes":[],"default_left":[0,0,0,0,0,0,0,0,0,0,0,0,0,0,0,0,0,0,0,0,0,0,0,0,0,0,0,0,0,0,0,0,0,0,0,0,0,0,0,0,0,0,0,0,0,0,0,0,0,0,0,0,0,0,0,0,0,0,0,0,0,0,0,0,0,0,0,0,0,0,0,0,0,0,0,0,0,0,0,0,0,0,0,0,0,0,0,0,0,0,0,0,0,0,0,0,0,0,0,0,0,0,0,0,0,0,0],"id":11,"left_children":[1,3,5,7,9,11,13,15,17,19,21,23,25,27,29,31,33,35,37,39,41,43,45,47,49,51,53,55,-1,57,59,61,63,65,-1,67,69,-1,-1,71,73,75,77,79,81,83,85,87,89,91,-1,93,95,97,-1,-1,99,-1,101,103,105,-1,-1,-1,-1,-1,-1,-1,-1,-1,-1,-1,-1,-1,-1,-1,-1,-1,-1,-1,-1,-1,-1,-1,-1,-1,-1,-1,-1,-1,-1,-1,-1,-1,-1,-1,-1,-1,-1,-1,-1,-1,-1,-1,-1,-1,-1],"loss_changes":[5.603648E2,3.2302066E2,1.4633423E2,1.988971E1,3.341076E2,2.687915E1,1.15387115E2,1.1092682E1,1.3015806E1,1.5028711E3,1.4609587E3,6.954764E1,8.424988E0,2.1581024E1,5.953177E1,8.654602E0,8.145327E0,1.5413826E1,4.8011355E0,3.440762E2,1.0502356E2,1.8724634E2,2.3139639E3,1.9161068E1,1.9002193E1,8.423828E0,2.047625E1,2.179013E1,0E0,9.560394E-1,8.384438E1,4.6382446E0,6.143959E0,1.2341709E0,0E0,5.2553177E0,6.338475E0,0E0,0E0,1.400149E2,1.0282085E2,1.09742096E2,8.4270386E1,7.48645E1,1.3264499E2,1.6334229E2,6.351168E2,1.4952286E1,1.8932524E1,6.6481934E0,0E0,1.1340902E1,3.1436768E0,7.4032516E0,0E0,0E0,1.2461899E1,0E0,3.2663026E0,4.7904503E1,2.320335E1,0E0,0E0,0E0,0E0,0E0,0E0,0E0,0E0,0E0,0E0,0E0,0E0,0E0,0E0,0E0,0E0,0E0,0E0,0E0,0E0,0E0,0E0,0E0,0E0,0E0,0E0,0E0,0E0,0E0,0E0,0E0,0E0,0E0,0E0,0E0,0E0,0E0,0E0,0E0,0E0,0E0,0E0,0E0,0E0,0E0,0E0],"parents":[2147483647,0,0,1,1,2,2,3,3,4,4,5,5,6,6,7,7,8,8,9,9,10,10,11,11,12,12,13,13,14,14,15,15,16,16,17,17,18,18,19,19,20,20,21,21,22,22,23,23,24,24,25,25,26,26,27,27,29,29,30,30,31,31,32,32,33,33,35,35,36,36,39,39,40,40,41,41,42,42,43,43,44,44,45,45,46,46,47,47,48,48,49,49,51,51,52,52,53,53,56,56,58,58,59,59,60,60],"right_children":[2,4,6,8,10,12,14,16,18,20,22,24,26,28,30,32,34,36,38,40,42,44,46,48,50,52,54,56,-1,58,60,62,64,66,-1,68,70,-1,-1,72,74,76,78,80,82,84,86,88,90,92,-1,94,96,98,-1,-1,100,-1,102,104,106,-1,-1,-1,-1,-1,-1,-1,-1,-1,-1,-1,-1,-1,-1,-1,-1,-1,-1,-1,-1,-1,-1,-1,-1,-1,-1,-1,-1,-1,-1,-1,-1,-1,-1,-1,-1,-1,-1,-1,-1,-1,-1,-1,-1,-1,-1],"split_conditions":[3E2,3E0,8.1E-1,8.379973E-1,1.3E1,4.43E2,5.6E4,4.3E1,9.000046E-1,1.2E1,2.4E1,6.73E0,6.53E0,9.000046E-1,3.25E0,6.73E0,3.2389E4,5.83E2,1.8E-1,5.1724E-1,1E5,1.75E5,2.5E1,4.31E2,4.48E5,4.5E-1,7.9723E4,3.78E0,-1.7119962E-1,3.06E0,1.72E2,7.7E-1,3.12E2,4.76E0,2.3082654E-1,1.79E5,1.93E4,1.7195934E-1,-5.069467E-1,1.869E3,7E0,1E0,2.85E4,1.3312E4,2.1E-1,7.4999976E-1,3.6E1,1.216E5,4.725E5,8.45E0,-1.5827599E-1,4.15E-1,8E-1,7.97E0,7.569789E-1,-1.5327094E-1,9.81E0,-4.049666E-1,3.4251E4,2.84E5,3.272E3,2.800863E-1,3.8984314E-1,1.6574906E-1,-5.7487833E-1,-6.7398494E-1,-6.709272E-2,3.5471293E-1,6.2834255E-2,-8.7494105E-2,1.2234225E-1,2.1050485E-2,2.68091E-1,-1.3302374E-1,5.0152857E-2,-1.00038014E-1,-3.4163478E-1,1.8565653E-1,-4.1459647E-1,6.4768985E-2,2.8316998E-1,-5.175482E-1,9.807115E-2,-5.9169E-1,-2.805266E-1,1.70765E-1,-2.9256814E-3,1.4631632E-1,-3.268312E-1,-2.710311E-1,7.650009E-1,1.6908779E0,2.3940392E-1,-2.8602782E-1,5.6439185E-1,-3.9099395E-1,-2.560187E-1,-7.525036E-2,-3.645062E-1,1.7105507E0,4.2712566E-1,-3.1238207E-1,1.3288604E-1,1.9536975E-1,1.193795E0,-2.9718384E-1,3.1709433E-2],"split_indices":[0,0,3,3,0,2,8,5,3,0,0,1,1,3,1,1,2,2,1,3,6,6,0,2,8,3,2,1,0,1,2,3,2,1,0,6,6,0,0,2,0,7,8,6,1,3,0,8,8,1,0,3,3,1,0,0,1,0,2,6,2,0,0,0,0,0,0,0,0,0,0,0,0,0,0,0,0,0,0,0,0,0,0,0,0,0,0,0,0,0,0,0,0,0,0,0,0,0,0,0,0,0,0,0,0,0,0],"split_type":[0,0,0,0,0,0,0,0,0,0,0,0,0,0,0,0,0,0,0,0,0,0,0,0,0,0,0,0,0,0,0,0,0,0,0,0,0,0,0,0,0,0,0,0,0,0,0,0,0,0,0,0,0,0,0,0,0,0,0,0,0,0,0,0,0,0,0,0,0,0,0,0,0,0,0,0,0,0,0,0,0,0,0,0,0,0,0,0,0,0,0,0,0,0,0,0,0,0,0,0,0,0,0,0,0,0,0],"sum_hessian":[9.6108695E4,9.489025E4,1.2184469E3,8.281939E2,9.4062055E4,9.518812E2,2.665657E2,6.201949E2,2.07999E2,6.3699927E3,8.769206E4,1.18429855E2,8.3345135E2,1.2562566E1,2.5400313E2,6.1506964E2,5.1252365E0,2.0210664E2,5.8923526E0,3.7778196E3,2.5921729E3,4.477617E3,8.3214445E4,1.1370588E2,4.72398E0,7.694028E2,6.404857E1,1.1116872E1,1.4456941E0,6.846321E1,1.8553992E2,6.112754E2,3.7942767E0,2.8120646E0,2.3131719E0,7.277336E1,1.2933328E2,1.114963E0,4.7773895E0,1.8199183E3,1.9579014E3,1.224755E3,1.3674178E3,3.7181562E3,7.59461E2,1.4170955E3,8.179735E4,1.05793945E2,7.9119306E0,3.6011734E0,1.1228065E0,6.5858207E0,7.6281696E2,6.263125E1,1.4173224E0,1.1856652E0,9.931207E0,5.9398632E1,9.064579E0,3.1272863E1,1.5426706E2,5.241773E2,8.7098076E1,2.2999096E0,1.4943674E0,1.608835E0,1.2032295E0,5.98686E1,1.2904759E1,2.8076569E1,1.01256714E2,5.1022534E2,1.309693E3,9.9052185E2,9.673795E2,5.3831604E2,6.8643896E2,3.7433475E1,1.3299844E3,2.7233514E2,3.445821E3,5.8864758E1,7.0059625E2,1.0456628E3,3.7143253E2,3.5178323E3,7.8279516E4,1.0863891E1,9.493005E1,3.7863512E0,4.1255794E0,2.1626906E0,1.4384828E0,4.4688797E0,2.116941E0,7.1825226E2,4.456471E1,2.3512611E1,3.9118637E1,6.549826E0,3.3813803E0,6.5937357E0,2.4708433E0,1.9344898E1,1.1927965E1,4.8598694E1,1.05668365E2],"tree_param":{"num_deleted":"0","num_feature":"9","num_nodes":"107","size_leaf_vector":"1"}},{"base_weights":[1.0054646E-3,7.0682466E-3,-5.896441E-1,-1.2091644E-2,1.851941E-1,-7.8359205E-1,-7.288605E-2,4.9862236E-2,-1.0322343E-1,-7.666835E-1,2.4452372E-1,-3.24552E-1,-8.616371E-1,-9.1051716E-1,1.2832962E-1,2.0754175E-2,3.726067E-1,-3.9068097E-1,-3.641194E-2,-5.0962615E-1,-1.0689198E0,2.731834E-1,-9.6066284E-1,1.1346822E0,-4.9387068E-1,-9.02282E-1,-4.2822132E-1,-3.9347297E-1,-3.9785576E-1,6.001021E-1,-4.963613E-2,4.4797406E-2,-3.702155E-1,7.723029E-1,9.13781E-2,-4.524825E-1,-1.3361873E-1,1.696347E-1,-1.3840559E-1,-2.6340264E-1,-1.1004235E0,-1.129469E0,4.118023E-1,-4.3211052E-1,3.1051853E-1,-2.4018557E-1,-3.919097E-1,2.3358922E0,9.6699946E-2,-6.8875724E-1,-9.8332316E-2,8.253494E-2,-9.1542E-1,8.699326E-1,-6.026933E-1,2.3383741E-1,-2.8926077E-1,9.0450996E-1,-5.771415E-1,-4.4907925E-1,3.536817E-1,-6.969165E-2,3.5081267E-2,-2.7882236E-1,8.033681E-2,3.1518516E-1,-8.9055854E-1,1.3788012E-1,-2.9536983E-1,-2.0372227E-1,-1.272348E-1,-5.920369E-2,1.7346061E0,2.1314291E-2,2.5242767E-1,-1.7520724E-1,1.2140537E-2,-1.7468815E-1,1.8349205E-1,-3.2153612E-1,-6.5106505E-1,-1.3591206E-1,-4.881838E-1,-2.3192437E-1,3.3486345E-1,1.181279E-1,4.8196203E-1,-2.8580713E-1,3.8986883E-1,1.1182829E0,2.2736605E-1,-2.4855462E-1,2.9294455E-1,-8.547316E-2,-3.329988E-1,-3.369107E-1,8.759241E-2,3.8447502E-1,-2.7647325E-1,-3.760244E-1,-2.1316068E-1,1.0894194E0,-2.705431E-1,-2.9412428E-1,1.846994E-1,3.9684948E-1,-1.9346482E-1,4.144008E-1,-3.182376E-1,-3.3258584E-1,4.5015596E-2,-3.2586135E-2,-4.0092498E-1,-2.749203E-3,8.2846594E-1],"categories":[],"categories_nodes":[],"categories_segments":[],"categories_sizes":[],"default_left":[0,0,0,0,0,0,0,0,0,0,0,0,0,0,0,0,0,0,0,0,0,0,0,0,0,0,0,0,0,0,0,0,0,0,0,0,0,0,0,0,0,0,0,0,0,0,0,0,0,0,0,0,0,0,0,0,0,0,0,0,0,0,0,0,0,0,0,0,0,0,0,0,0,0,0,0,0,0,0,0,0,0,0,0,0,0,0,0,0,0,0,0,0,0,0,0,0,0,0,0,0,0,0,0,0,0,0,0,0,0,0,0,0,0,0],"id":12,"left_children":[1,3,5,7,9,11,13,15,17,19,21,23,25,27,29,31,33,35,37,39,41,43,45,47,49,51,53,-1,55,57,59,61,63,65,67,69,71,73,75,77,79,81,-1,83,85,87,-1,89,91,93,95,97,99,101,103,105,-1,107,109,111,113,-1,-1,-1,-1,-1,-1,-1,-1,-1,-1,-1,-1,-1,-1,-1,-1,-1,-1,-1,-1,-1,-1,-1,-1,-1,-1,-1,-1,-1,-1,-1,-1,-1,-1,-1,-1,-1,-1,-1,-1,-1,-1,-1,-1,-1,-1,-1,-1,-1,-1,-1,-1,-1,-1],"loss_changes":[3.3734467E2,3.1824496E2,9.5815094E1,4.7536163E2,5.1181082E2,2.4366302E1,4.4629284E1,4.7084845E2,6.543719E2,4.02287E1,2.9502298E2,2.6892845E1,9.681244E0,1.1402321E0,1.8038567E1,4.3222583E2,4.6593097E2,1.0196362E2,5.811224E2,4.178244E1,3.315094E1,2.1960901E2,2.2624054E0,1.3826165E1,7.1766186E0,7.147583E0,1.3434588E1,0E0,2.3439755E0,2.211803E1,2.5664396E1,4.0708566E2,4.9747113E2,8.39129E1,5.126001E2,3.923047E1,8.158114E1,4.9149057E2,9.3521533E2,2.6455757E1,1.068026E1,1.6182648E1,0E0,7.963531E1,1.0684265E2,5.8752213E0,0E0,1.0656738E0,4.666557E0,3.9608974E0,8.31086E0,7.4155455E0,4.029419E0,2.460073E1,7.650938E0,3.587155E0,0E0,1.2267891E1,2.5204787E0,1.6092009E1,4.920012E1,0E0,0E0,0E0,0E0,0E0,0E0,0E0,0E0,0E0,0E0,0E0,0E0,0E0,0E0,0E0,0E0,0E0,0E0,0E0,0E0,0E0,0E0,0E0,0E0,0E0,0E0,0E0,0E0,0E0,0E0,0E0,0E0,0E0,0E0,0E0,0E0,0E0,0E0,0E0,0E0,0E0,0E0,0E0,0E0,0E0,0E0,0E0,0E0,0E0,0E0,0E0,0E0,0E0,0E0],"parents":[2147483647,0,0,1,1,2,2,3,3,4,4,5,5,6,6,7,7,8,8,9,9,10,10,11,11,12,12,13,13,14,14,15,15,16,16,17,17,18,18,19,19,20,20,21,21,22,22,23,23,24,24,25,25,26,26,28,28,29,29,30,30,31,31,32,32,33,33,34,34,35,35,36,36,37,37,38,38,39,39,40,40,41,41,43,43,44,44,45,45,47,47,48,48,49,49,50,50,51,51,52,52,53,53,54,54,55,55,57,57,58,58,59,59,60,60],"right_children":[2,4,6,8,10,12,14,16,18,20,22,24,26,28,30,32,34,36,38,40,42,44,46,48,50,52,54,-1,56,58,60,62,64,66,68,70,72,74,76,78,80,82,-1,84,86,88,-1,90,92,94,96,98,100,102,104,106,-1,108,110,112,114,-1,-1,-1,-1,-1,-1,-1,-1,-1,-1,-1,-1,-1,-1,-1,-1,-1,-1,-1,-1,-1,-1,-1,-1,-1,-1,-1,-1,-1,-1,-1,-1,-1,-1,-1,-1,-1,-1,-1,-1,-1,-1,-1,-1,-1,-1,-1,-1,-1,-1,-1,-1,-1,-1],"split_conditions":[3E2,3.96E5,8.1E-1,8.4E1,3E1,4.43E2,3.25E0,7.4E1,8.5E1,8.315E-1,9.000046E-1,6.724E-1,6.53E0,3.06E0,2.93E2,7.2E1,7.8E1,6.01E0,1.08E2,7.5E5,9.85E0,2.1E-1,4.0875E5,2.37E5,5.39E0,4.5E-1,7.1E-1,-3.9347297E-1,3.07E0,9.000046E-1,8.8E-1,2.22E4,1.0586E4,5.36E5,1E0,1.05E5,1.5E2,1E2,1.22E2,6E0,6.243E3,6E0,4.118023E-1,2.52E2,8.6E-1,1.9E1,-3.919097E-1,1.13E2,5.3E0,1.73E0,1E0,5.22E0,8E-1,8.8E5,8E0,2.4E5,-2.8926077E-1,5.02E5,1.08E2,9.36E3,2.5E5,-6.969165E-2,3.5081267E-2,-2.7882236E-1,8.033681E-2,3.1518516E-1,-8.9055854E-1,1.3788012E-1,-2.9536983E-1,-2.0372227E-1,-1.272348E-1,-5.920369E-2,1.7346061E0,2.1314291E-2,2.5242767E-1,-1.7520724E-1,1.2140537E-2,-1.7468815E-1,1.8349205E-1,-3.2153612E-1,-6.5106505E-1,-1.3591206E-1,-4.881838E-1,-2.3192437E-1,3.3486345E-1,1.181279E-1,4.8196203E-1,-2.8580713E-1,3.8986883E-1,1.1182829E0,2.2736605E-1,-2.4855462E-1,2.9294455E-1,-8.547316E-2,-3.329988E-1,-3.369107E-1,8.759241E-2,3.8447502E-1,-2.7647325E-1,-3.760244E-1,-2.1316068E-1,1.0894194E0,-2.705431E-1,-2.9412428E-1,1.846994E-1,3.9684948E-1,-1.9346482E-1,4.144008E-1,-3.182376E-1,-3.3258584E-1,4.5015596E-2,-3.2586135E-2,-4.0092498E-1,-2.749203E-3,8.2846594E-1],"split_indices":[0,8,3,0,0,2,1,0,0,3,3,3,1,1,2,0,0,1,0,8,1,1,8,6,1,3,3,0,1,3,3,6,2,6,7,6,5,0,0,5,2,0,0,0,3,5,0,2,1,1,4,1,3,6,5,6,0,8,2,2,6,0,0,0,0,0,0,0,0,0,0,0,0,0,0,0,0,0,0,0,0,0,0,0,0,0,0,0,0,0,0,0,0,0,0,0,0,0,0,0,0,0,0,0,0,0,0,0,0,0,0,0,0,0,0],"split_type":[0,0,0,0,0,0,0,0,0,0,0,0,0,0,0,0,0,0,0,0,0,0,0,0,0,0,0,0,0,0,0,0,0,0,0,0,0,0,0,0,0,0,0,0,0,0,0,0,0,0,0,0,0,0,0,0,0,0,0,0,0,0,0,0,0,0,0,0,0,0,0,0,0,0,0,0,0,0,0,0,0,0,0,0,0,0,0,0,0,0,0,0,0,0,0,0,0,0,0,0,0,0,0,0,0,0,0,0,0,0,0,0,0,0,0],"sum_hessian":[9.4200266E4,9.324512E4,9.551478E2,8.419107E4,9.054045E3,6.9374207E2,2.6140576E2,5.011942E4,3.407165E4,5.2982043E2,8.524225E3,1.0230846E2,5.914336E2,4.926649E1,2.1213927E2,4.5975094E4,4.1443276E3,6.423733E3,2.7647916E4,2.892124E2,2.4060802E2,8.327735E3,1.9648933E2,9.451338E0,9.285712E1,5.387473E2,5.26863E1,4.1505424E1,7.761065E0,5.680634E1,1.5533293E2,4.3313254E4,2.6618386E3,1.7102054E3,2.4341223E3,5.1774727E3,1.2462605E3,9.153921E3,1.8493994E4,2.0617686E2,8.3035545E1,2.3475768E2,5.850335E0,4.1760773E2,7.910128E3,5.778585E0,1.9071074E2,3.221921E0,6.2294164E0,6.121373E1,3.1643387E1,6.9534693E0,5.317938E2,5.2975864E0,4.738871E1,2.8292503E0,4.9318147E0,4.550353E1,1.130281E1,7.792733E1,7.74056E1,7.093915E3,3.621934E4,1.6926323E3,9.6920624E2,1.7027875E3,7.417925E0,1.8657235E3,5.6839886E2,3.6349963E3,1.5424761E3,1.2441888E3,2.0715833E0,7.312366E3,1.841555E3,6.662371E3,1.1831623E4,1.6690805E2,3.926881E1,5.63735E1,2.6662048E1,2.5233067E1,2.0952461E2,3.7505075E2,4.2556957E1,7.780569E3,1.2955911E2,4.748334E0,1.0302511E0,1.6334687E0,1.5884523E0,2.9461536E0,3.2832627E0,1.5374067E1,4.5839664E1,8.471969E0,2.317142E1,3.0290337E0,3.9244359E0,4.9687134E2,3.4922497E1,1.7168385E0,3.5807476E0,4.2688606E1,4.7001057E0,1.0033551E0,1.8258951E0,4.296195E1,2.54158E0,7.9573426E0,3.3454673E0,4.8196255E1,2.9731077E1,6.562154E1,1.1784065E1],"tree_param":{"num_deleted":"0","num_feature":"9","num_nodes":"115","size_leaf_vector":"1"}},{"base_weights":[-8.6722174E-4,2.7334433E-2,-1.6968286E-1,-1.3054401E-2,8.5511506E-1,-8.1885684E-1,1.6035391E-2,2.3390988E-2,-4.3470618E-1,1.3362783E0,7.1232754E-1,-8.923596E-1,3.541405E-1,3.5098988E-1,-1.9599079E-1,1.0363434E-2,6.108979E-1,-6.0493374E-1,3.714668E-1,5.60711E-1,1.4298266E0,2.1004194E-1,9.916737E-1,-9.4412345E-1,-6.0812163E-1,4.674593E-1,-3.6011395E-1,6.4965757E-3,4.237467E-1,-6.6392595E-1,-2.2861272E-2,1.8704861E-2,-5.357054E-1,6.3678414E-1,-5.657614E-1,-7.980731E-1,7.943763E-2,1.8746427E-3,6.7094165E-1,-7.28133E-1,7.790961E-1,1.4995925E0,7.176279E-1,4.631313E-1,2.7262224E-2,1.2458407E0,6.8623877E-1,-9.9020565E-1,-7.693276E-1,-9.0358007E-1,8.5914487E-1,5.3842103E-1,-4.5047456E-1,-1.2995376E-1,7.4165237E-1,7.0441717E-1,2.9571205E-1,-7.6848876E-1,-3.5872513E-1,2.4283879E-1,-3.068348E-1,-3.1520226E-3,1.1645309E-1,3.8238922E-1,-2.573801E-1,4.209107E-1,2.3689781E-1,-3.464581E-2,-4.4078633E-1,1.1599759E-1,-3.3353636E-1,1.4650029E-1,-1.4146249E-1,1.3532041E-1,-2.4075413E-1,9.819147E-2,6.923445E-1,-3.8842773E-1,3.0785084E-1,4.0150008E-1,-2.9883584E-2,6.0423774E-1,-3.0988657E-1,3.3480167E-1,-1.4820923E-1,-1.6155206E-1,2.1973336E-1,-1.8552436E-1,8.175609E-2,7.947226E-1,4.402001E-1,3.3381432E-1,1.5961209E-1,7.462221E-2,-3.9754555E-1,-3.12804E-1,3.7736908E-1,3.0746212E-2,-3.7280115E-1,-2.89116E-1,5.869855E-1,2.2139566E-2,2.916707E-1,-1.0864389E-1,1.3350253E-1,3.3570838E-1,-4.7510853E-1,3.0520263E-1,3.0188614E-3,1.803094E-1,6.978961E-2,-3.188756E-1,2.9298622E-2,1.9312309E-1,-1.9705454E-1,2.1600667E-1,